dense/kernel:0
(20, 32)
[[-2.54799128e-01 -5.44180155e-01  4.29136813e-01 -6.67651832e-01
  -7.75906146e-01 -2.18173742e-01 -4.55976754e-01  2.97608465e-01
   4.21052396e-01  9.69663262e-02 -5.30230045e-01 -5.88725209e-01
   5.70335150e-01  9.76058766e-02  2.40493625e-01  4.64187533e-01
  -6.56820610e-02  8.70095044e-02  3.94995697e-02 -6.84287012e-01
   1.88155919e-01 -1.63739938e-02  4.17832434e-01 -3.53594959e-01
  -4.24502760e-01  3.51409137e-01  1.22978911e-01 -3.91262591e-01
  -6.36636972e-01 -2.82481045e-01 -1.96173310e-01 -7.22055361e-02]
 [ 3.01019907e-01  5.31581044e-01 -9.28126182e-03 -1.32927522e-01
  -5.62898815e-01 -4.41010654e-01 -1.39042646e-01 -2.49340504e-01
  -1.08599789e-01 -5.62537432e-01 -1.49240628e-01  2.78331846e-01
  -6.01794273e-02  1.81574270e-01 -3.28210950e-01  9.62796137e-02
   4.11610454e-01 -1.83520198e-01 -6.77737966e-02 -4.82165307e-01
  -4.13582206e-01  3.03019434e-01  3.48538458e-01  1.47481054e-01
  -2.97673047e-01 -5.50451219e-01  3.07702988e-01  5.08286953e-02
   3.07705969e-01 -4.26651299e-01 -3.81903112e-01 -2.95920759e-01]
 [-5.75838685e-01 -2.51864105e-01  5.21708429e-01  3.10978532e-01
  -2.23756302e-02  5.24957702e-02  1.63775951e-01 -4.82184410e-01
  -7.61045933e-01  3.03705428e-02 -5.36977470e-01 -1.98599145e-01
  -4.70461130e-01  6.79910600e-01 -1.56909332e-01 -7.36510217e-01
   3.27770561e-01 -5.98962843e-01  5.03233373e-01 -4.71078187e-01
  -3.03817272e-01  4.31699455e-01 -4.05999213e-01 -1.01384096e-01
   1.82440951e-01 -4.28303689e-01  5.96744180e-01 -1.63320318e-01
  -3.58114988e-02  3.93773913e-01 -7.31127501e-01  1.32642314e-02]
 [ 1.84573792e-02  1.26780495e-01 -3.50259781e-01 -2.17612505e-01
  -3.20573568e-01 -2.41883814e-01 -6.71983302e-01  3.18637490e-01
  -2.38967702e-01  2.59972930e-01  3.37759376e-01 -5.03758192e-01
  -1.44154467e-02 -2.19191387e-01 -4.78854328e-01  1.73274547e-01
  -4.09094930e-01 -4.87729609e-02 -3.03383946e-01 -3.15294892e-01
   6.28448963e-01  2.76877701e-01 -3.25188458e-01 -7.00634003e-01
   3.18048090e-01  8.56876075e-02 -1.79299131e-01 -4.29643393e-01
  -5.88239096e-02  1.91354081e-01 -2.61152774e-01 -5.65152466e-01]
 [-9.43939686e-02 -3.32485646e-01  2.99125195e-01 -2.33940393e-01
  -9.95375067e-02 -2.57944703e-01 -1.95927158e-01 -2.75388449e-01
   1.27820611e-01 -9.65573639e-02  2.26370394e-01 -3.58265340e-02
  -8.95518064e-03  1.80876970e-01  2.23343372e-01  6.77666068e-03
  -1.81977510e-01 -1.73786417e-01  1.00286484e-01 -2.32588410e-01
   1.29655272e-01 -1.41613051e-01 -1.27463371e-01  3.34205151e-01
  -1.91908345e-01 -2.87896365e-01  3.26743424e-02 -2.23418504e-01
   8.43405724e-03 -1.77723765e-02  2.60374069e-01  3.03510725e-01]
 [ 2.24953949e-01  4.16841209e-02 -2.63898373e-01 -5.18128276e-03
   2.47681141e-02 -6.76484108e-02 -1.15172982e-01 -2.50222534e-01
   1.59130096e-02  3.03318977e-01  2.92861342e-01 -3.37523520e-01
   1.70827627e-01  3.39508533e-01 -2.30573207e-01  3.17519307e-01
   1.57400131e-01  1.34383112e-01 -2.12498009e-01 -1.39438644e-01
   1.70960963e-01  1.83783531e-01  1.78936124e-02  6.43377602e-02
   1.04498595e-01  5.81192970e-03 -2.15089679e-01 -1.27992615e-01
  -2.82230049e-01 -1.54234186e-01  3.39358032e-01  2.56537080e-01]
 [ 7.37873614e-02  3.06060255e-01 -1.97767317e-02 -3.14960212e-01
  -1.90673381e-01 -5.39300740e-02  3.20611775e-01 -1.75297230e-01
   9.64340270e-02 -2.02043355e-01  1.25508845e-01 -2.43607864e-01
  -1.55508518e-01  1.29895657e-01  2.97487378e-01 -2.12795407e-01
   2.25348175e-01 -3.26022983e-01 -2.53810108e-01 -1.85718685e-01
   3.77285480e-03  1.32729620e-01  7.99895823e-02  1.38982832e-01
  -2.42342442e-01 -4.84162569e-03 -2.94122636e-01  1.48067862e-01
   3.06961656e-01 -8.37079883e-02 -1.76521748e-01 -2.88040042e-01]
 [-1.56684771e-01  1.32441789e-01 -1.75287515e-01 -1.71026796e-01
  -1.94020882e-01  1.99984014e-01 -3.32123071e-01 -2.65214562e-01
   5.45907021e-03 -1.18514732e-01 -1.62008926e-01 -1.94566816e-01
   1.04444623e-02  8.91032517e-02  1.23664290e-01  5.33671081e-02
  -2.88067460e-02  5.03760576e-03  1.57680899e-01  2.35590279e-01
  -3.08549464e-01 -8.91715288e-02  2.16603696e-01  1.37362868e-01
   3.21384728e-01 -3.33522856e-01  2.31283963e-01  2.23380864e-01
  -1.88757718e-01  2.12240160e-01 -1.71441525e-01 -2.51730353e-01]
 [-1.52477503e-01  2.47301459e-01  7.29009807e-02  1.69476330e-01
   1.65025651e-01 -1.93538606e-01 -3.02246660e-01  3.04759860e-01
   6.04655147e-02 -2.14427695e-01  4.18035090e-02  2.55056500e-01
   3.08428288e-01 -1.57649517e-02 -1.12851411e-01 -2.42483854e-01
  -2.07408562e-01 -2.05879807e-02 -1.08593374e-01  3.39593053e-01
  -1.41729757e-01 -6.37712479e-02 -1.62404954e-01 -8.71517956e-02
  -1.92090243e-01 -2.41589516e-01 -2.30004191e-01  3.03564131e-01
   3.15155566e-01 -3.34955454e-02 -2.39276454e-01  2.99803138e-01]
 [-1.66833222e-01  2.32429445e-01 -2.89830565e-01  3.23069990e-01
  -2.52273947e-01  2.90152729e-01  2.71518111e-01  2.55184293e-01
   7.34265745e-02 -7.86874592e-02 -2.46360362e-01  1.15183175e-01
  -2.64376670e-01  5.02525270e-02  1.87482655e-01  7.80051649e-02
   2.50301182e-01 -3.51595879e-03 -1.56015977e-01  2.14388549e-01
  -1.31600574e-01 -3.65865827e-02  2.87556946e-01  5.95854521e-02
  -2.50973612e-01  2.76651382e-01  2.52641201e-01  1.65943801e-01
   2.41998255e-01  2.26140499e-01 -3.08124721e-02 -2.20519677e-01]
 [ 1.54087782e-01 -3.01445723e-02 -6.14124238e-02 -1.52364373e-01
  -7.89930224e-02 -1.87020153e-01  2.31503129e-01  3.27455103e-01
  -2.09254906e-01  8.04612339e-02 -1.18890509e-01 -5.75695336e-02
  -2.63347656e-01 -3.29863459e-01 -1.49762273e-01 -2.63436198e-01
  -2.59055495e-02 -1.55055523e-02  3.95969450e-02 -3.31902623e-01
  -1.08189493e-01 -3.19385231e-01  6.19986951e-02 -1.77193210e-01
   8.98047686e-02  1.86225116e-01 -4.75577712e-02  1.90059483e-01
   4.98489738e-02 -3.91210616e-02 -1.80259451e-01 -3.18789244e-01]
 [ 1.74936056e-01  3.26138079e-01  3.07630420e-01  3.27832222e-01
  -2.64620453e-01  2.46484995e-01  2.28000343e-01  1.71700597e-01
  -3.93120348e-02  3.31640542e-01  1.52205646e-01 -2.65317589e-01
   2.27806628e-01 -2.49417290e-01  2.76612580e-01  2.12526023e-01
  -1.22904375e-01 -2.25701928e-03  1.57962829e-01 -2.35139489e-01
   1.25751138e-01 -3.33617628e-02  2.31270850e-01 -1.94100097e-01
   1.95385575e-01 -9.65490937e-03 -2.81229556e-01  2.26428688e-01
  -2.55499154e-01  1.25798613e-01 -3.08713317e-02 -2.51275122e-01]
 [ 1.36284620e-01  1.88258827e-01  4.01318669e-02 -1.78986415e-01
  -5.69108725e-02 -2.75017381e-01  1.69661939e-01  2.42002845e-01
  -1.26318946e-01 -1.03915498e-01 -2.70201504e-01 -1.98645964e-01
   2.74739563e-01 -1.16213575e-01  1.76860332e-01 -3.36102694e-01
   1.26940310e-02 -1.00880682e-01  1.03542060e-01 -1.11567125e-01
  -1.97891727e-01  1.86756611e-01 -2.81800658e-01  1.32308334e-01
   3.15925717e-01  1.79211915e-01  1.84150934e-02  2.45916247e-01
  -2.15021402e-01  1.66360438e-01 -3.11984748e-01  2.34959602e-01]
 [-2.94920683e-01 -2.12632447e-01 -2.38608807e-01  2.14419663e-01
  -1.03051603e-01 -6.95510209e-02  1.87562168e-01 -4.91666496e-02
  -2.96905994e-01  2.99315035e-01  3.15236747e-01 -1.60129711e-01
   7.94464052e-02 -3.20757091e-01 -2.70683050e-01  1.44580901e-01
  -2.93160766e-01  1.34158641e-01 -1.08547941e-01 -1.86355576e-01
   1.49144828e-01  3.31262112e-01  7.87989199e-02 -2.21737385e-01
   1.21017218e-01  2.19515383e-01 -3.17676246e-01 -2.02655792e-06
  -2.27733254e-01  2.07551837e-01 -3.34310293e-01  2.08993554e-01]
 [-8.90595317e-02 -2.80448347e-01 -2.56342709e-01  3.24252844e-01
  -5.19141555e-03 -6.56354129e-02  2.92618930e-01  2.08489656e-01
  -3.16327274e-01  1.87081277e-01  2.73674667e-01  3.00651968e-01
  -2.64865100e-01  1.84145629e-01  8.19755197e-02 -1.14822790e-01
  -3.26500744e-01 -3.30945373e-01  3.30823839e-01 -8.64058435e-02
  -1.23284370e-01  3.31891060e-01  2.33936965e-01  8.61104727e-02
  -9.93980467e-02 -9.54479277e-02  3.04082394e-01  3.16125870e-01
  -7.44350255e-02 -3.18853408e-01  2.25860178e-01  2.67028809e-02]
 [-3.14794332e-01  4.33679223e-02  3.38841915e-01 -2.33367980e-01
   6.57368004e-02  1.33728683e-02 -1.21414542e-01 -2.39993840e-01
   5.90658486e-02 -1.04933500e-01 -2.61823237e-01 -2.38708407e-01
  -2.22590104e-01  1.99149370e-01 -2.05850050e-01 -3.04313362e-01
  -2.65235394e-01 -2.83340216e-02  2.73405552e-01  2.41850436e-01
   1.42302513e-02 -1.80276945e-01 -8.16493332e-02  1.70978546e-01
  -1.77482978e-01  3.39083970e-01  1.49730682e-01 -5.96761405e-02
   3.30478907e-01 -2.38998100e-01 -2.11771965e-01 -3.38309407e-01]
 [ 6.00336194e-02  2.30907738e-01 -1.29946589e-01  8.09139013e-03
  -1.02825820e-01  1.66563630e-01 -1.79360330e-01 -1.62837014e-01
  -1.79288015e-01 -1.36125788e-01 -2.57568836e-01  5.42059839e-02
  -1.77751690e-01 -1.25888497e-01 -3.22842091e-01 -2.32650936e-01
  -3.14234793e-01 -1.99685261e-01 -2.08532095e-01  1.78624630e-01
  -1.39038801e-01  2.77298987e-01 -2.66807914e-01  7.70727694e-02
   1.69452429e-01  1.77665353e-01  5.48438430e-02 -1.50171325e-01
   4.77929711e-02 -3.16911340e-01 -2.71885395e-02 -5.36842644e-02]
 [-1.74238250e-01  1.32474989e-01  3.04097474e-01 -1.60027668e-01
  -3.39440465e-01 -9.56970453e-02  1.76481962e-01 -1.55871019e-01
   2.89188743e-01  6.84722066e-02 -2.55496800e-01 -6.06450737e-02
   2.38440573e-01 -1.64542183e-01 -2.00290680e-02 -2.40256310e-01
  -4.95003164e-02  2.41557539e-01 -1.77422896e-01  1.26306325e-01
  -3.17499131e-01  3.59152853e-02  1.88720286e-01  1.20981663e-01
  -2.52396882e-01 -7.80643523e-02  3.20572674e-01 -9.58922952e-02
  -1.06220543e-02 -1.96701288e-03 -2.30120495e-01  1.98622227e-01]
 [ 3.05345058e-01 -2.94326246e-02 -1.56545550e-01  1.10306472e-01
   1.65777743e-01 -6.43222928e-02  1.92508459e-01 -2.64081806e-01
  -1.77325711e-01  1.74633086e-01 -1.01923466e-01 -1.99926272e-01
  -6.33619428e-02  2.24096537e-01  1.33691728e-01 -1.56427398e-01
   4.50456440e-02 -1.11593306e-02 -1.21696547e-01  2.63488889e-02
   2.33425736e-01 -7.74355829e-02  8.54568183e-02 -2.40867525e-01
  -9.15723890e-02  1.46801472e-02  2.11904287e-01  2.37177908e-01
  -1.43232301e-01 -4.97404635e-02  1.68823540e-01 -1.93278402e-01]
 [-3.25642228e-02  8.75295997e-02  2.21615613e-01  1.60399795e-01
   5.33820987e-02  1.64204419e-01 -7.56466389e-03 -3.31685036e-01
  -2.27289677e-01 -2.68480182e-01  1.10144317e-02  1.66199267e-01
   1.57030433e-01 -1.48265138e-01 -1.20278150e-01  3.93456519e-02
   9.33224261e-02  6.02983832e-02 -7.49468803e-03  1.39348030e-01
   3.10454726e-01  3.20117831e-01 -2.95760989e-01  2.51289487e-01
   1.96671367e-01  1.93176627e-01  3.28080297e-01  2.81284750e-01
   1.77191079e-01 -1.71008900e-01 -1.46454602e-01 -2.41875648e-01]]
dense/bias:0
(32,)
[-0.12442571 -0.03363695 -0.26752546 -0.8174613  -0.28360096 -0.07549173
  0.11120579 -0.16053429 -0.2246184  -1.2985481  -0.7891943  -0.00724897
 -0.0940304   0.00809492 -0.25945845 -1.0337073   0.11471894 -1.7849561
 -0.97459996 -0.09436005 -0.5118519  -0.48988664 -0.5826564   0.01850009
 -0.5603483  -0.36494082 -0.4108669  -1.4574047  -0.32583618 -1.0335901
 -0.01684918  0.29536766]
dense_2/kernel:0
(32, 4)
[[ 1.6101374e-01  6.7439534e-02  3.6178717e-01  1.5271496e+00]
 [ 4.8532662e-01 -2.7763566e-01 -1.9158939e-01  4.5615643e-01]
 [ 2.6215887e-01 -8.1233782e-01  4.2170089e-01 -1.5910816e-01]
 [ 6.5116543e-01  8.7926620e-01 -4.0741321e-01 -6.6191185e-01]
 [ 3.5909319e-01 -4.0148377e-02 -5.0477583e-02  7.2716519e-02]
 [ 3.2680261e-01 -2.5026156e-02 -1.6856330e-02 -2.0329502e-01]
 [ 2.9419446e-01  6.0485369e-01  4.8830748e-02  4.8079491e-01]
 [ 2.4963491e-01  1.4724430e-01  5.3291607e-01  1.2899512e-01]
 [-5.6935108e-01  5.1414591e-01 -6.5903270e-01  9.2061430e-02]
 [-2.9006910e-01  2.2921468e-01 -5.4271275e-01  7.2580284e-01]
 [-2.4565060e-01  3.3461659e-03  3.3240756e-01 -2.4185094e-01]
 [ 3.2353646e-03 -3.2707214e-01  8.4838980e-01  8.3368558e-01]
 [-3.7385535e-01 -1.4197463e-01  5.0049311e-01  1.1395467e-01]
 [ 5.1873177e-01  8.0101854e-01 -5.0923452e-03 -7.5042769e-02]
 [ 4.5097433e-02 -2.8446173e-02  3.3109205e+00 -2.9430282e-01]
 [-6.3566780e-01 -1.1739529e-01  9.8342925e-01  3.9997452e-01]
 [ 2.9607785e-01  1.5100551e-01  4.4337559e-01 -1.5116236e-02]
 [-3.7783456e-01 -1.9080953e-01  4.4054905e-01  1.3667194e+00]
 [ 3.3896512e-01  1.5037376e+00  3.8744119e-01 -1.5518019e-01]
 [ 2.8462586e-01  3.4052588e-02  1.1837983e+00 -2.6697508e-01]
 [-1.1767273e-01  1.6268728e+00  9.8213173e-02  5.7008111e-01]
 [ 8.7477165e-01  3.0440700e-01 -2.2166693e-01 -9.7715192e-02]
 [-7.0535368e-01  3.6381865e-01  1.3698798e+00 -7.3599780e-01]
 [ 2.2371191e-01 -3.9233911e-01 -2.4333678e-01  1.3151860e+00]
 [ 5.9944354e-02  3.2669514e-01 -3.0601647e-01  4.5612398e-01]
 [ 6.8731457e-02  1.6526605e-01  5.9546220e-01 -3.2615185e-02]
 [ 2.9970756e-01  7.7649683e-01  3.7339118e-01  9.4819121e-02]
 [-3.9880261e-01  1.7096877e-01  4.7883248e-01 -2.6730612e-01]
 [ 2.5179654e-01 -2.0817980e-01  3.1617892e-01 -1.1924976e-01]
 [ 1.6084825e-01  1.9486355e+00 -4.6444765e-01  2.5023539e+00]
 [ 4.1908520e-01  3.5324928e-01  2.3143797e-01  5.5964059e-01]
 [ 1.0791821e-01  1.1322967e+00  6.8024568e-02  1.4416616e-01]]
dense_2/bias:0
(4,)
[ 0.07226777  0.07128035 -0.01323282  0.04285455]
dense_1/kernel:0
(32, 8)
[[-0.06729566 -0.1102825   0.0932508  -0.155965    0.38970914  0.2637402
   0.18589896  0.18015413]
 [-0.07913507 -0.5847663  -0.323679   -0.02443517  0.6411526   0.24148507
   0.24067521  0.19012824]
 [-0.14265375 -0.30549905 -0.86069024 -0.06789798 -0.3402948  -0.11924075
  -0.46658275 -0.37266007]
 [ 0.19358006 -0.20199874 -0.04720132  0.7079846  -0.05242648 -0.16267793
   0.19717172  0.598902  ]
 [-0.10052568  0.03811176 -0.6486713   0.7559711   0.8174144   0.1954629
  -0.72208744 -0.13656424]
 [ 0.11206973  0.02290772  0.10027987  0.14323932  0.25989595  0.00349471
  -0.07276427 -0.2815117 ]
 [ 0.7797624  -0.04946213  0.0512132  -0.11289103  0.41641304  0.09561478
  -0.6286015  -0.02471907]
 [ 0.12498032  0.04066537  0.17308971 -0.23410611  0.6678351   0.2386939
  -0.3070153   0.28893235]
 [ 0.08554032  0.06669819  0.48246512  0.21353775  0.07569183 -0.6314095
  -0.04318747 -0.06346983]
 [-0.24625616  0.1003112  -0.21392536 -0.69819623  0.5594204  -0.56685567
  -0.4287571  -0.29216766]
 [-0.5843085  -0.46081898 -0.2731874   0.35273492 -0.5335534  -0.80805844
  -0.9964773   0.22763371]
 [ 0.07048034  0.32433063 -0.05090221  0.40427348 -0.26808643 -0.825001
  -0.15591799  0.2317434 ]
 [ 0.04880957 -0.5191207  -0.00718301  0.610976   -0.55642    -0.4266759
  -0.47846344  0.03781961]
 [-0.13488604 -0.50277096  0.2910491   0.2821963  -0.12028176 -0.24988826
   0.26563188  0.27985215]
 [-0.34371617 -0.37444595 -0.03809366 -0.27489054  0.1359589  -0.4093189
   0.40850002 -0.13493969]
 [ 0.30638146 -0.8955427   0.29281396  0.12642345 -0.13570069 -0.09807718
   0.25072274 -0.37302142]
 [-0.45277086 -0.23006494  0.6650515  -0.36388612  0.3003953   0.39952713
  -0.91070706 -0.2705825 ]
 [-0.9834143   0.19150995  0.52128404 -0.42453855  0.2456071  -0.37825888
  -0.24437107 -0.13530816]
 [-0.3253864  -0.26745048  0.90655166 -0.09083457  0.9247384  -0.13557734
   0.13703604  0.04861432]
 [-0.00537346 -0.7276018  -0.6498191   0.25943166 -0.37052423 -0.04146688
   0.63238084 -0.42361632]
 [-0.16405225 -0.43980706  0.27172884 -0.14789292  0.08447215  0.08249305
  -0.5747535   0.5153809 ]
 [ 0.14876522 -0.35698143 -0.6626603  -0.20375368 -0.2583578   0.11527902
  -0.07235495  0.21319512]
 [ 0.74972326  0.06958377  0.27603015  0.11008462  0.5146793   0.4664867
  -0.48805094 -0.21737652]
 [ 0.1960754  -0.09253771 -0.36186168 -0.34266603 -0.11350153 -0.2661449
   0.02444964  0.31574675]
 [-0.15117942  0.14369163  0.57837504  0.4829842  -0.07200881 -0.15523711
  -0.1685557   0.16599314]
 [-0.44513533 -0.25749683  0.4013201  -0.18476555  0.50983405  0.5018825
   0.10484877  0.88541436]
 [-0.00821117 -0.05980062 -0.4078366  -0.06926773  0.14569207 -0.5865415
   0.70671254  0.03924777]
 [ 0.72739613 -0.01529769 -0.7116245  -0.12255593  0.22273259 -0.02159289
  -0.3151216   0.53322935]
 [-0.1310199  -0.7035824  -0.08540893 -0.73608816 -0.48610523  0.4963807
   0.02879136  0.69504595]
 [ 0.29294828 -0.25157183  0.5297731   0.08903948  0.17245118 -0.7928177
  -0.30235702 -0.34276098]
 [-0.07881729 -0.28381336  0.03694941 -0.5179598  -0.27745956  0.08816004
   0.58903474  0.22603707]
 [-0.5706369  -0.5734512  -0.3909983  -0.20232585 -0.18936256  0.40281832
  -0.11169274 -0.2919221 ]]
dense_1/bias:0
(8,)
[ 0.13841356  0.26308993 -0.04050021  0.02785897  0.04209542 -0.00907864
  0.0770217  -0.11672913]
dense_3/kernel:0
(20, 32)
[[-3.88989896e-01 -3.38565223e-02  6.09417796e-01 -5.18546462e-01
  -7.84942567e-01  6.36109859e-02  4.69340831e-01  7.03933984e-02
   2.79294234e-02 -3.74189526e-01  1.84383690e-01 -3.70227367e-01
   1.73653975e-01 -4.04634893e-01 -2.03511238e-01  2.03574806e-01
  -1.18702555e+00  4.22922164e-01 -3.65378559e-01 -4.51235890e-01
  -3.81184101e-01  5.99738240e-01  6.16352260e-01  9.22787040e-02
   2.42849827e-01  1.40352651e-01  1.89957619e-01  2.70802509e-02
  -9.71186996e-01 -7.89928138e-02  9.53805506e-01 -3.89755875e-01]
 [-6.22061551e-01 -7.43723392e-01  6.88341916e-01  5.87133989e-02
   2.96825796e-01 -6.06301963e-01  3.21885245e-03 -2.99322724e-01
   6.41175687e-01 -4.06207591e-01  6.93414986e-01  8.42966139e-01
   1.36076740e-03 -1.36626169e-01 -1.17320053e-01 -1.08578749e-01
  -4.29979026e-01  6.35698080e-01 -8.34461033e-01 -8.31808522e-02
   1.61107004e-01  1.22301626e+00 -7.06949353e-01  1.11439884e+00
  -4.03882623e-01  4.89453048e-01  5.58292121e-02  3.54734629e-01
   1.34676546e-01 -2.28626668e-01 -1.67490900e-01 -2.60883510e-01]
 [-3.12690079e-01  6.90840185e-01 -7.34951198e-01  3.63430823e-03
  -1.70099184e-01  2.65152097e-01 -3.85159582e-01  1.27349153e-01
  -8.31647158e-01 -1.75286248e-01  2.31694922e-01  1.17070280e-01
   5.41752040e-01 -6.18144989e-01 -2.35269591e-01  4.30665016e-02
  -7.17606962e-01  4.84483093e-01 -5.95971942e-01  5.44510663e-01
  -1.83147281e-01  5.04309349e-02  2.07502574e-01  5.49051940e-01
   1.85800791e-02 -8.28670561e-01 -5.70706546e-01 -4.46062721e-02
  -8.89574826e-01  3.10092151e-01 -6.09095134e-02  1.95148587e-01]
 [-5.28182387e-01  2.52740592e-01 -8.03029281e-04  4.83563244e-01
  -2.24095196e-01  2.13550925e-01  2.62695193e-01  3.52810562e-01
   3.82579893e-01 -2.69055426e-01  3.48837346e-01  3.46454680e-01
   7.10946202e-01  9.79160890e-02 -1.00967169e+00  1.01044178e-01
  -2.00775743e-01 -2.24236250e-01 -7.56513596e-01  2.13090613e-01
  -5.71351469e-01 -1.01565468e+00 -9.11193013e-01 -2.81496108e-01
   4.52308744e-01  7.43110657e-01 -4.60945070e-01 -3.18679392e-01
  -8.46057534e-02  5.89000523e-01 -6.09490126e-02 -9.55843389e-01]
 [-3.23423654e-01 -1.23718873e-01  1.10860825e-01  2.17389360e-01
   1.19495916e+00  2.59554207e-01  2.23308131e-01 -3.24353784e-01
   4.72483456e-01 -2.08647728e-01 -9.27165896e-03  1.38187200e-01
  -2.56668061e-01  2.08294764e-01  3.65526170e-01 -7.84075856e-02
   1.15097135e-01  1.02741264e-01 -3.19119155e-01  4.25382137e-01
   1.02395967e-01 -3.11752290e-01 -6.26413822e-01  2.81465352e-01
   5.95338345e-01  3.11787754e-01  1.40031770e-01  4.79887009e-01
  -4.59662937e-02 -4.67328578e-01  5.29248454e-02  2.81026661e-01]
 [ 2.40565300e-01  5.70623457e-01  4.04457361e-01  1.55208781e-01
   9.49743807e-01  7.85149410e-02  5.43783069e-01 -3.22414279e-01
   4.02449727e-01 -8.40909854e-02 -2.70372778e-01 -5.59868276e-01
   3.49970341e-01  2.42175069e-02  6.34696364e-01  2.29703695e-01
   5.17188847e-01  2.40028411e-01  5.05622983e-01  4.43512619e-01
  -3.64667088e-01  4.06284630e-02  3.38244945e-01  1.87578827e-01
   3.58502358e-01  6.02050841e-01  8.31746161e-01 -3.04980487e-01
  -2.25043505e-01  1.25577554e-01 -3.92857850e-01  6.96071565e-01]
 [ 1.50573924e-02 -4.81500894e-01  7.37793967e-02  6.51267648e-01
   3.65166366e-01  6.59861639e-02 -1.13670856e-01  5.37047684e-01
   8.17683339e-01  2.09643804e-02  1.90117329e-01 -4.10705030e-01
   3.83814663e-01 -5.35593331e-01  3.23515475e-01  4.10655737e-01
  -4.48067814e-01 -3.34048778e-01  4.83371496e-01 -1.82511449e-01
   5.40876947e-03 -1.06583260e-01  1.98899418e-01  5.35585523e-01
   3.42342764e-01  6.10984504e-01 -5.09540401e-02 -3.87342155e-01
  -4.01210278e-01 -3.75744045e-01  2.58654445e-01  6.64033711e-01]
 [-1.04896225e-01  7.73675382e-01  4.37417626e-02  1.76730409e-01
  -1.56846344e-01  4.50914949e-01  5.29400468e-01 -7.65726119e-02
   1.32138794e-02  1.91596642e-01  2.57343709e-01 -2.08511353e-01
  -2.63333142e-01 -4.29463014e-02 -4.69232768e-01  4.16751474e-01
   7.44977891e-02 -4.43912834e-01 -3.15985739e-01  4.18478362e-02
   2.92713225e-01 -8.91521499e-02 -7.88238943e-01 -2.67840326e-01
   3.88457626e-03  6.23925865e-01  3.98088582e-02 -1.17615975e-01
  -2.52245869e-02 -4.10601169e-01 -2.22068340e-01  1.89833894e-01]
 [-1.02191411e-01 -1.15153396e+00 -4.67968136e-01 -3.23703349e-01
  -2.32291475e-01 -2.04482496e-01 -5.27614728e-02 -1.45922914e-01
   1.46461114e-01  3.15095484e-01 -1.30883008e-01 -2.18124911e-01
   4.61414307e-01  1.08140767e-01 -6.34053349e-01 -1.04183525e-01
  -2.61581063e-01  4.37250808e-02 -1.86516792e-01 -4.41914469e-01
   1.51520506e-01 -4.14071739e-01 -8.72604251e-01  4.32388997e-03
  -3.46496612e-01 -3.54244590e-01 -9.04051960e-02 -1.19909912e-01
   1.40567973e-01 -1.97137102e-01  3.09003890e-01 -1.70969501e-01]
 [ 3.88993807e-02 -4.37889278e-01  5.98015904e-01  3.38161647e-01
   6.74474314e-02  2.79107928e-01 -4.72287536e-02  3.25120002e-01
   1.26933962e-01  1.76062211e-01  6.91412315e-02  3.75259757e-01
   6.77925467e-01  4.30687368e-01  3.34377974e-01 -6.08975329e-02
   3.92351747e-01  3.58656377e-01  1.87776163e-01  1.71526223e-01
  -2.98386186e-01 -1.79878026e-02  2.45966971e-01  3.14939825e-06
   3.67092609e-01  3.25331181e-01  5.52137077e-01  4.40563440e-01
  -2.50858795e-02  1.61139801e-01 -4.42548603e-01 -5.91988206e-01]
 [-2.92148560e-01  9.41158950e-01  4.10735816e-01  4.27284271e-01
   5.65023780e-01  7.11512864e-02  1.33097902e-01  3.41234326e-01
   7.63530195e-01 -1.44830018e-01  4.92142327e-02 -7.73451403e-02
  -1.14860265e-02  4.08024788e-01  4.15765166e-01  2.24163532e-02
   5.03739178e-01 -3.54672849e-01  5.65937757e-01  6.65323555e-01
  -6.28247321e-01  2.76469141e-01  5.79078853e-01  2.02200919e-01
   8.20934325e-02  4.56903040e-01  3.28415483e-02  2.79465556e-01
   6.31731329e-03  1.07819274e-01  5.02517402e-01 -1.77414417e-01]
 [-1.58594310e-01 -1.43018365e-01 -1.16619396e+00  3.52176696e-01
  -2.79693574e-01  1.93098634e-01 -4.77088898e-01  1.36180222e-01
   4.20874447e-01  1.17304195e-02 -1.74891576e-01  4.33218598e-01
   2.90633887e-01 -3.27644080e-01 -6.13863111e-01 -1.89930573e-01
  -1.78725610e-03  5.99841475e-01 -3.88095602e-02 -3.86237502e-01
   8.06482218e-04 -3.27651381e-01 -1.90939397e-01 -1.07086205e+00
  -2.72810727e-01  4.26890939e-01 -8.82990062e-02 -1.24734230e-01
   4.00738239e-01 -1.00657389e-01  2.22141296e-01 -3.19972664e-01]
 [ 3.08026999e-01 -8.31749290e-03 -3.07325542e-01 -2.66136795e-01
   1.43323578e-02 -3.50796849e-01 -1.89838640e-03  4.55241017e-02
  -2.35582143e-01  4.49721783e-01  1.28570870e-01  1.20904967e-01
  -2.60147274e-01  9.92627740e-01  6.34668171e-02  2.95373917e-01
   3.93665642e-01 -2.63024002e-01  1.53422713e-01  6.24588095e-02
  -1.78134918e-01  1.68979049e-01 -2.73789745e-03 -1.12256789e+00
   2.06655279e-01 -1.30421054e+00  4.32880074e-01 -5.37109077e-01
   2.62535065e-01  2.22356126e-01  6.16247579e-02 -1.89802289e+00]
 [-1.11253309e+00  3.46374124e-01 -7.00803220e-01 -6.33773685e-01
   1.88913360e-01  6.56201959e-01  6.26822561e-02 -2.38593921e-01
   2.10076481e-01  1.59097984e-01 -8.57387334e-02  2.02218533e-01
  -1.34910882e-01 -4.62282114e-02 -2.32663944e-01  4.10282254e-01
   1.15686201e-01 -4.95030126e-03  8.79758373e-02 -7.86371648e-01
  -3.26770395e-01 -1.06585808e-01  2.81854808e-01 -6.04489923e-01
   2.74980277e-01 -9.77445543e-02  4.93912399e-01  3.58532727e-01
  -2.73257233e-02 -5.00456929e-01 -7.70816445e-01 -1.25500545e-01]
 [-9.65454698e-01  1.64043173e-01 -2.01391622e-01 -6.70923710e-01
  -3.19844335e-01  6.00692213e-01 -2.30515912e-01 -3.13161850e-01
   1.35155231e-01 -5.34037352e-01  4.92075920e-01 -1.04110956e+00
  -1.71229437e-01  7.71043956e-01 -6.11259401e-01 -7.65167058e-01
   6.35723650e-01  4.54372354e-02  4.42478895e-01 -3.14655662e-01
  -8.86059344e-01 -1.24345005e-01 -1.55307174e-01  2.41623357e-01
   2.76930809e-01 -7.17922211e-01  1.47526562e-01 -1.02462506e+00
  -1.72516569e-01  4.15196940e-02  7.63018191e-01 -2.74661053e-02]
 [-5.81477404e-01 -1.69158578e-01  9.23839331e-01 -1.82630360e-01
  -4.59562868e-01  2.88323075e-01  1.01704204e+00 -8.59509632e-02
   6.04673982e-01 -9.63847041e-02  7.10106492e-01 -3.52200955e-01
   4.90202665e-01  1.95858777e-01 -1.67708084e-01  1.00637324e-01
  -4.05098975e-01  4.25551921e-01  4.40386683e-01  3.82449776e-01
   6.52577698e-01 -5.18111527e-01 -1.05858415e-01 -1.30621731e+00
  -9.06632841e-02 -1.02843024e-01 -4.87015069e-01  5.26193380e-01
   4.64102417e-01 -2.21085215e+00 -3.86336774e-01 -1.07347751e+00]
 [-5.66414118e-01  6.10666752e-01  4.36838508e-01 -5.04350364e-01
   3.21970731e-01  2.24090025e-01 -4.47645754e-01  6.44626439e-01
   2.73707211e-02  4.82971787e-01 -1.70891747e-01 -2.07048684e-01
   2.50428945e-01 -3.76652837e-01 -2.18782768e-01  1.86004341e-01
  -4.03200388e-01 -4.94924039e-01 -5.02506122e-02 -2.09436119e-01
   6.66593611e-02 -1.83986187e-01 -7.89092258e-02  1.22675886e-02
  -7.60376930e-01  1.37974307e-01 -4.02627587e-01 -7.00995997e-02
   1.84402511e-01  1.01393104e-01 -1.42441675e-01 -1.34333029e-01]
 [ 2.58637726e-01 -5.54866612e-01 -4.47637558e-01 -5.26383519e-01
  -6.20763540e-01 -5.67104280e-01 -1.05000055e+00  4.59475905e-01
  -5.53934872e-01  1.34983853e-01 -6.86770201e-01  4.23098616e-02
   4.44650859e-01 -4.06316549e-01  3.37026924e-01 -8.29813719e-01
  -1.51171222e-01  8.19192231e-02  3.28745991e-01 -3.26770134e-02
  -1.92397550e-01 -9.03630435e-01 -4.37681317e-01  1.66392371e-01
  -6.96848452e-01  3.11418205e-01  2.40079075e-01 -8.67213666e-01
  -4.24781799e-01  2.59879768e-01  2.90568750e-02 -9.36591744e-01]
 [ 2.58514490e-02 -3.76933604e-01 -3.63291204e-02  3.74322534e-01
  -2.08693802e-01 -9.27410066e-01 -3.31145108e-01 -2.81253725e-01
   2.26734325e-01  4.42684978e-01  6.14705794e-02  2.58730520e-02
  -7.71717206e-02 -2.90762305e-01  3.75858694e-01  7.16377914e-01
  -4.55985405e-02  2.95920551e-01 -1.74944282e-01 -7.30950952e-01
   8.50480795e-02 -2.32894406e-01 -3.32635075e-01 -2.81528264e-01
  -6.25894964e-01  1.44880265e-01  4.69023287e-01 -7.29733884e-01
  -5.12006700e-01 -1.41342878e-01  2.16424972e-01  2.80856848e-01]
 [ 6.92681745e-02 -3.16963673e-01  7.95006454e-01 -7.97544181e-01
   7.60896206e-01  3.97875980e-02  2.12142870e-01  4.23730463e-01
  -2.57077664e-01  1.77058339e-01 -1.25658974e-01 -3.61767948e-01
  -8.89089704e-01 -1.36019140e-01 -8.01375747e-01  3.36139977e-01
  -6.17924511e-01 -5.13504088e-01 -8.79442930e-01  1.99613664e-02
   1.82894588e-01  1.17880546e-01  1.80226788e-01 -1.98369652e-01
   3.05679828e-01 -5.58891147e-02  1.26809523e-01 -8.17263901e-01
   1.52552754e-01  5.48481226e-01  5.03643692e-01 -1.05744705e-03]]
dense_3/bias:0
(32,)
[-1.0030974  -0.34280148  0.00496802 -0.7658096   0.0883665  -0.01246355
 -0.58221906 -0.10505684 -0.32228526  0.00511132 -0.1570269  -0.3768247
 -0.44222987  0.1331801  -0.36128452  0.17972897 -0.02936142  0.06651479
 -0.07666545 -0.58946437 -0.6021149   0.10274146 -0.5409486  -0.23793352
  0.0567518  -0.5836424   0.26839036 -0.04328209  0.2810505  -0.6118102
 -0.1028721   0.26887864]
dense_5/kernel:0
(32, 4)
[[ 0.17674395 -0.4844574   0.53535783  0.06153342]
 [ 0.14557864 -2.2472577   0.3505258   0.37961727]
 [-0.4209561  -0.19559695 -0.27869302  2.139368  ]
 [-0.25791806 -0.50127065  0.009024    0.13122779]
 [-0.272802   -0.55434394  0.1497629  -0.45638633]
 [ 0.19340721  0.25259268  0.6271262   0.5910755 ]
 [-0.5890478  -0.19567984 -0.43151104 -0.9887397 ]
 [ 0.05005405 -0.28299376  0.96263534 -0.02954542]
 [-0.04268203  0.25106418  0.33089885 -0.5189685 ]
 [ 0.01335524 -1.3447859   0.53203744  0.66689694]
 [ 0.23123421 -0.10241874 -0.16386819  0.40276647]
 [-0.06089969 -0.7202152   0.28592652  0.25711778]
 [ 0.9994975  -0.72432584 -0.44280612 -0.12576148]
 [-0.5080452   0.10613994  0.04826713  0.61970186]
 [-0.93020505 -0.36833286  0.15749645  0.40219408]
 [ 0.16144782  0.34572995  0.3448991  -0.0399083 ]
 [-0.49857137  0.80447733 -0.0431006   0.6269925 ]
 [ 0.5263749  -0.5833813  -0.02239786  0.0445486 ]
 [-0.12785843 -0.44929796  0.47426337  0.18417089]
 [ 1.2916086  -0.7083302   0.9389799  -0.6750289 ]
 [ 0.03097531 -0.63391757  0.3421115   0.10279058]
 [ 0.65235627 -0.69790095  0.08373234  0.7380795 ]
 [ 0.66245145 -0.2908767   1.594848   -0.6536056 ]
 [ 0.18248096  0.85372657 -0.48866284  0.21469972]
 [ 0.6565284  -0.19649947  0.29474768  0.53904986]
 [-0.2611844  -0.29106027  1.0781702   0.03721943]
 [-0.16938813 -0.39416072  0.7717635  -0.43506828]
 [ 0.58251137  0.38091984  0.20309007 -0.5631215 ]
 [-0.46399134 -0.562113   -0.252955    1.370607  ]
 [ 0.1917665  -1.9204938  -0.7798934   0.14384632]
 [ 0.33688557  0.16020292  0.5572872   0.26397592]
 [-0.07443034 -1.020192   -0.07683258  0.36926812]]
dense_5/bias:0
(4,)
[ 0.12472554 -0.08331127 -0.3639933  -0.24867663]
dense_4/kernel:0
(32, 8)
[[ 1.15697220e-01 -5.08811116e-01  5.96495032e-01  6.35145530e-02
   1.32212549e-01  2.49031574e-01  1.18693240e-01 -6.86409354e-01]
 [-5.38200259e-01  6.53461993e-01  8.41302991e-01  2.05012009e-01
   3.57395232e-01  1.99558854e-01 -9.60917994e-02  5.52685916e-01]
 [-3.78990948e-01  3.17902654e-01  5.31180382e-01  7.45987892e-01
  -7.15180933e-01  3.68048400e-01 -3.00784290e-01 -9.82455015e-01]
 [-8.97525437e-03  5.66393912e-01 -3.93688977e-01  1.24076076e-01
   4.14146334e-01  3.53931785e-01 -5.45577407e-01 -8.42052758e-01]
 [-1.89281821e-01  1.05498396e-01  3.45796824e-01 -1.03447902e+00
  -1.40158432e-02 -3.17692637e-01 -2.37235412e-01  5.85924029e-01]
 [-1.08111516e-01  2.16931134e-01 -4.58918095e-01 -1.14601776e-01
   4.34397519e-01  2.71621533e-02 -2.13616520e-01 -5.01793146e-01]
 [-7.44292215e-02  4.07433689e-01  1.24972737e+00  4.33720201e-01
   6.04004085e-01  1.19805252e-02  2.74072438e-01  7.26226717e-02]
 [-2.15139940e-01  2.50836551e-01 -2.72023045e-02 -2.07521603e-01
  -1.26104310e-01 -2.00761288e-01  3.19720685e-01  1.81044415e-01]
 [-3.21995258e-01 -2.14476198e-01  1.16712540e-01  8.45141336e-02
  -8.44777107e-01 -9.01840180e-02  5.34548998e-01  1.45672277e-01]
 [ 9.45098773e-02 -6.70590997e-02  2.41330028e-01  3.80783856e-01
  -1.83509104e-02  3.59564531e-03  1.82627618e-01  1.21081598e-01]
 [-5.17851770e-01  1.24720685e-01 -5.19055426e-01 -1.87327489e-01
  -1.35579228e-01  8.00803378e-02 -2.17885166e-01 -1.32253647e-01]
 [-1.37230143e-01  2.15190679e-01  1.09003119e-01 -2.62662262e-01
  -2.31691107e-01 -5.34256458e-01  3.07874769e-01 -9.07862708e-02]
 [ 3.71010512e-01  1.83476895e-01  3.05791676e-01  1.64534912e-01
   1.96577653e-01  2.16165632e-01 -5.55370189e-02  6.74023628e-02]
 [ 1.18922368e-01  4.52539891e-01  3.21183532e-01  2.87730128e-01
  -3.66147488e-01 -2.51597077e-01  8.62882510e-02  6.09083846e-02]
 [ 1.19056366e-01 -4.19299901e-01 -6.36915088e-01 -1.10417344e-01
   8.09333920e-01 -6.85322523e-01  9.27891433e-01  3.73426735e-01]
 [ 4.83784199e-01 -5.34689248e-01 -7.12435305e-01  3.75043690e-01
  -3.69583815e-02 -2.49777243e-01  7.40600303e-02 -4.51175183e-01]
 [-5.60006678e-01 -6.39626980e-01 -5.48220873e-01  1.88367084e-01
   5.93201578e-01  1.97797775e-01 -4.32817101e-01 -2.63633311e-01]
 [-1.97012117e-03  6.58424422e-02 -2.78323684e-02  6.85184956e-01
  -9.44083929e-02 -9.06194448e-02  1.43424854e-01  1.18339807e-01]
 [-4.41671371e-01  1.12127528e-01 -3.79093140e-01 -8.45347121e-02
   7.07746685e-01  4.32511657e-01  4.82524246e-01 -6.55245721e-01]
 [-5.21545671e-03 -5.19518733e-01 -1.77544132e-02 -1.38244361e-01
  -3.22325587e-01  5.22080123e-01 -1.78664401e-01  6.24396265e-01]
 [-6.47650734e-02  1.04477547e-01 -2.79804081e-01 -2.95224667e-01
   1.48977265e-01 -7.95388997e-01  1.35127917e-01 -6.62287697e-02]
 [-1.39297560e-01 -3.97971034e-01  1.61666468e-01 -4.55627739e-01
   7.68792510e-01 -7.61707351e-02  9.65672672e-01 -6.03890836e-01]
 [-1.04841456e-01 -5.49385428e-01 -2.68649787e-01  1.00694966e+00
  -2.43042479e-03 -1.46225974e-01 -2.34580666e-01  3.01570117e-01]
 [ 2.11718187e-01  4.67353016e-01  4.78397906e-01 -1.02793865e-01
  -2.40399867e-01 -1.01088834e+00 -5.31114101e-01 -7.45971084e-01]
 [ 4.36391324e-01  2.30534792e-01 -2.78419793e-01  3.15789014e-01
  -2.55446732e-01  2.96383724e-03 -2.91439831e-01  5.33903778e-01]
 [ 6.72831774e-01  7.79673219e-01 -1.41047940e-01  3.94580841e-01
  -1.89264446e-01 -3.03946972e-01  3.79945278e-01  5.95311582e-01]
 [-1.16865762e-01 -5.15833139e-01  8.12606394e-01 -4.41508018e-04
  -1.42709494e-01  3.37545574e-02  3.27356070e-01  6.31249547e-02]
 [-7.31573105e-02 -3.98051083e-01  7.76587605e-01  3.22320610e-01
   2.93721780e-02  3.35017711e-01 -2.65193224e-01  3.23678702e-01]
 [-6.82585463e-02 -1.02718491e-02  1.96398094e-01 -9.42983776e-02
   4.03495207e-02  2.04479605e-01  1.93803534e-01  3.39557827e-01]
 [ 1.29701793e-01 -5.74051023e-01 -8.29225704e-02  2.79540002e-01
   5.39287686e-01  5.98198771e-02 -5.38736247e-02 -2.45710090e-01]
 [ 1.86202750e-01  3.37171197e-01 -5.70047125e-02 -2.55766898e-01
   6.49363548e-02  2.87574053e-01  5.25972366e-01  1.00147724e-01]
 [ 8.30866575e-01  1.13204587e-02  2.31450289e-01 -1.11559618e+00
  -5.86615145e-01  8.33835363e-01 -8.07894051e-01  4.60020229e-02]]
dense_4/bias:0
(8,)
[ 0.13204654 -0.15335368 -0.08697554 -0.37502235  0.0957934   0.00236402
 -0.25481465 -0.04052437]
dense_6/kernel:0
(20, 32)
[[ 5.98124802e-01 -3.88760924e-01 -1.85330123e-01 -6.05773091e-01
  -3.54581922e-01 -1.89888403e-01  6.25370443e-01 -2.19059184e-01
  -1.59527048e-01 -2.55482614e-01 -1.92596048e-01 -3.81075293e-01
  -4.15934265e-01  1.52648360e-01  5.93741953e-01  6.21263325e-01
  -1.01869203e-01  3.47334146e-01 -2.66381323e-01  2.34010637e-01
   6.90431952e-01  4.78634000e-01  1.07689470e-01  9.79310393e-01
   2.54995469e-02  5.49332440e-01 -3.04135710e-01 -3.42788517e-01
  -5.69273472e-01  2.85639405e-01 -4.74111974e-01  1.43647835e-01]
 [-7.76889503e-01  7.88251460e-01 -6.60633564e-01 -7.61085376e-02
   1.79305047e-01  1.11772716e+00 -9.77276444e-01 -3.87878031e-01
   5.62951505e-01  6.84086159e-02  3.19859415e-01  1.87584564e-01
  -1.99483316e-02  2.07765270e-02  9.31788266e-01 -7.85928249e-01
  -2.38856286e-01  8.86128128e-01 -6.88519716e-01 -4.34827715e-01
  -2.07554251e-01 -6.20771110e-01  2.38988418e-02  1.15544416e-01
  -9.78882760e-02  1.29719064e-01 -1.15628563e-01  8.30028802e-02
   9.05994177e-01 -3.78095984e-01 -6.80036545e-01 -2.38746345e-01]
 [ 4.39340204e-01 -2.58376330e-01  5.86360574e-01  1.82024047e-01
  -7.05315113e-01 -5.81297316e-02  8.15954685e-01 -3.45159739e-01
  -3.32791388e-01  4.79492694e-01  5.76417863e-01  7.32409537e-01
  -6.59381986e-01  1.49962157e-01  3.24613422e-01  2.88765609e-01
  -7.03316689e-01  4.33708960e-03 -1.61624342e-01  7.77869701e-01
  -2.07181610e-02  3.99322122e-01  5.35390377e-01 -2.84543782e-01
  -2.20300555e-01  5.27506828e-01 -2.49463513e-01  2.01989159e-01
  -7.05629468e-01  3.60113293e-01 -7.35336661e-01  1.96479604e-01]
 [ 3.67238164e-01 -9.26109776e-02  2.98765659e-01 -2.12457478e-01
   1.21852078e-01 -2.24418733e-02  4.75183755e-01 -5.13490260e-01
   4.01903033e-01  6.49542585e-02  3.33277285e-01 -2.90559679e-01
   9.05971408e-01  2.53908157e-01  3.32614213e-01  8.77416849e-01
   4.72943306e-01 -7.21027136e-01  8.11443508e-01 -3.54699671e-01
   1.71670914e-01  6.25979006e-01  1.00240803e+00  4.52424586e-01
   3.53657246e-01  3.19364518e-01 -4.41871971e-01 -4.26693022e-01
  -7.19037473e-01 -1.19822478e+00 -1.07493155e-01  1.70682743e-02]
 [-4.93463464e-02  4.43746448e-01 -2.66644150e-01  4.15391088e-01
  -1.06044531e-01  1.21794067e-01  3.63051951e-01  1.05194733e-01
   1.14609487e-01  3.17225039e-01 -3.76943573e-02  2.40934938e-01
   3.30102801e-01 -5.02197258e-02 -2.51271844e-01  6.19679913e-02
   4.49444592e-01 -2.21094951e-01 -3.87650639e-01  1.76319852e-01
   1.43382832e-01  3.56223196e-01 -1.15287535e-01 -2.32995391e-01
   1.77542716e-01 -5.30700088e-01  7.23330975e-02 -4.78805341e-02
  -2.83983171e-01  1.85996041e-01 -2.29105040e-01  6.95357705e-03]
 [ 4.34839837e-02 -3.64454001e-01 -4.28097576e-01 -1.09817244e-01
  -3.83027159e-02 -7.99483899e-03 -1.16222627e-01  3.54779005e-01
   2.57456571e-01 -1.58795223e-01 -2.30422720e-01  3.88737202e-01
   4.05339956e-01  5.45596600e-01 -5.79421334e-02  1.85109571e-01
  -2.92456359e-01  2.39669994e-01 -1.85307816e-01 -2.29902193e-01
   4.19679880e-02 -2.00371474e-01  6.36276126e-01 -4.80326712e-02
  -5.92592478e-01  6.12371452e-02  1.37892021e-02  7.16061797e-03
  -1.85062677e-01 -3.03683907e-01  2.27334037e-01  1.43457860e-01]
 [ 3.05432826e-01 -2.95404613e-01  2.68769950e-01  2.87160367e-01
  -9.47780088e-02 -6.73139989e-01 -3.58042605e-02  4.37203825e-01
  -8.05784315e-02 -5.19591391e-01 -3.00381947e-02  6.48949072e-02
  -7.70758837e-02  2.19254717e-01  6.42905951e-01  3.88538897e-01
  -2.31256351e-01 -9.42506567e-02 -7.25098133e-01 -2.15236261e-01
   3.79577309e-01 -2.43194476e-01 -2.88511395e-01 -4.21581447e-01
   2.45741501e-01 -2.39896506e-01  3.42078328e-01  1.69109568e-01
  -1.58843815e-01  1.24307193e-01  4.79317427e-01  4.79968339e-02]
 [-5.49959131e-02 -2.85943180e-01  4.32578951e-01  1.68644547e-01
  -2.68645212e-02 -8.69688213e-01  2.63782501e-01 -1.96874559e-01
  -3.34983796e-01  1.61130369e-01 -1.41230285e-01  4.60593015e-01
   2.08196715e-01  1.93134740e-01 -5.73826246e-02  3.86553347e-01
   3.54286075e-01  3.40220869e-01 -2.02359051e-01  4.63850573e-02
   6.16344631e-01 -2.71683168e-02  1.54720515e-01 -4.93258685e-01
   3.97059798e-01  3.27448696e-01 -1.28054217e-01 -2.85229772e-01
   6.70322925e-02  3.34525913e-01 -2.36407518e-01 -6.05923414e-01]
 [-7.37608373e-02  2.16075461e-02 -5.60258329e-01 -2.33725503e-01
   1.31653562e-01  2.86508352e-01  1.04690760e-01 -3.98473114e-01
  -2.54403055e-01 -6.00943625e-01  2.44920980e-03 -1.58753440e-01
  -3.63477528e-01 -1.26697674e-01 -2.76314914e-02  3.69683266e-01
   8.05993099e-03 -3.07331830e-01 -6.95868492e-01 -1.41690299e-01
  -2.38654897e-01  3.57597172e-02  1.17261969e-01  2.45329365e-01
   3.95956337e-02  2.82753885e-01 -4.68359888e-01  3.05960149e-01
   1.08448282e-01 -1.77671537e-01 -3.77812982e-01 -2.26406619e-01]
 [ 1.84538737e-01 -1.86820403e-01  2.47579828e-01  3.66246164e-01
   4.65772390e-01  2.57546067e-01  9.23284292e-02 -1.10320121e-01
   1.50373653e-01  4.94450539e-01 -2.94862896e-01 -8.42070114e-03
   3.17886829e-01 -2.44153157e-01  7.38461018e-01  2.57319093e-01
   8.42942446e-02  1.65786982e-01 -4.47516650e-01  2.68521249e-01
   2.95288622e-01  6.51915014e-01 -1.11290373e-01  6.85311377e-01
  -1.94712073e-01  2.27575392e-01  2.73555636e-01  4.20243025e-01
   1.79480448e-01  3.86796623e-01  1.08727701e-01 -3.09301555e-01]
 [ 3.32941860e-01 -8.01093161e-01 -6.58653796e-01 -6.16023004e-01
  -1.19609032e-02 -1.23103583e+00 -9.93505195e-02  8.88569281e-02
   3.32479715e-01 -3.18298824e-02 -1.92902148e-01 -1.83003038e-01
  -4.95536774e-01  3.02893579e-01 -9.88501385e-02 -1.57780960e-01
   8.69251192e-02  1.03287160e-01 -8.30089509e-01  9.28057507e-02
  -6.35507226e-01  6.50421083e-02 -1.33589497e-02 -5.46606302e-01
  -6.62159733e-03 -2.80782461e-01 -3.45235884e-01  1.03712499e-01
  -7.07281381e-02 -3.38229030e-01 -5.10135055e-01  4.81506675e-01]
 [ 4.24669296e-01  1.55410439e-01  5.07344604e-02 -1.98654473e-01
  -1.07567303e-01  6.95645273e-01  4.14112478e-01 -2.28474140e-02
   1.03065461e-01  1.26642436e-01  1.91590637e-01  1.36187881e-01
  -1.80079654e-01  2.66561896e-01 -4.04865332e-02 -2.80449614e-02
  -1.69165686e-01  2.46078566e-01  3.41154747e-02 -2.35072330e-01
   4.31126446e-01 -6.95314780e-02  2.36855224e-01  9.03197303e-02
   9.66309309e-02  1.97918802e-01  1.72007948e-01 -6.89844415e-02
   7.74236843e-02  2.48329148e-01  2.11303070e-01  4.16612417e-01]
 [-2.01595668e-03  3.73591214e-01 -6.02619588e-01  1.26795620e-01
   2.35952660e-02 -1.10620379e-01 -7.54909456e-01 -2.27560192e-01
  -1.40919551e-01 -1.41362026e-02 -2.48394638e-01 -9.51580927e-02
  -3.39131683e-01 -1.91126972e-01  5.62043130e-01 -5.54716401e-02
  -4.41160291e-01 -8.66641819e-01  6.89017028e-02 -7.26092532e-02
   9.00766626e-03  7.31235623e-01 -7.64349282e-01 -2.94858694e-01
  -8.59761834e-01  2.99844921e-01  8.27195942e-01 -7.45092630e-01
   7.49579489e-01 -6.75978541e-01 -5.80568373e-01  3.64126004e-02]
 [-1.28459826e-01  8.21383953e-01 -2.73585677e-01 -2.98985273e-01
  -1.73386633e-02  5.57529740e-02  2.70496100e-01 -1.89005852e-01
  -3.36290509e-01  5.94142437e-01  6.33795187e-02  5.23214459e-01
  -1.06797025e-01 -1.69431604e-02  1.31647497e-01  6.19860470e-01
   8.19388092e-01  7.51968473e-02  5.82089238e-02 -2.26916865e-01
   2.34007329e-01 -1.20383717e-01  1.84397772e-01 -4.56361085e-01
  -4.79881577e-02  7.14811444e-01 -5.76826371e-02  7.03779638e-01
  -3.71773958e-01  2.83475667e-01  1.45298913e-01 -7.58808525e-03]
 [ 1.27549604e-01 -2.25358891e+00  9.92298219e-03  5.85324615e-02
   7.87910819e-01  6.26781404e-01 -3.00880134e-01  1.50767803e-01
   2.22977072e-01 -4.18331146e-01  2.35820293e-01 -9.56975579e-01
  -6.84137225e-01 -3.28389585e-01  1.18375145e-01 -2.89871454e-01
  -3.53195637e-01 -1.11222848e-01 -3.20658803e-01  2.46133596e-01
  -7.15470791e-01 -3.48211318e-01 -3.92337173e-01 -1.52272936e-02
  -4.98432517e-01 -1.87311709e-01  9.09134746e-03  1.22326396e-01
  -4.92164016e-01 -8.91919494e-01  2.63765678e-02 -1.78818971e-01]
 [-2.13691920e-01 -3.30593377e-01 -2.73557693e-01 -9.18244898e-01
  -8.38076174e-02  2.76343971e-01  2.00500190e-01  1.48984388e-01
   6.63649365e-02 -6.10822737e-02  4.09732372e-01 -7.56831989e-02
   9.79609117e-02 -5.18700123e-01 -1.65276334e-01 -1.07167697e+00
  -1.71228647e-01 -2.14164317e-01  6.41267896e-02 -8.74038696e-01
  -4.97177303e-01 -2.12334573e-01  3.77437353e-01  2.62191966e-02
  -1.13343112e-01 -6.79795980e-01  2.01565623e-01 -2.63935089e-01
   4.96685319e-02 -1.03934564e-01  2.28643924e-01 -7.41354600e-02]
 [-6.01859868e-01  7.89189264e-02  7.07869589e-01  3.68993431e-01
  -2.52025425e-01 -7.20635355e-02 -5.26750922e-01  2.05004528e-01
  -8.88145342e-03 -9.31830585e-01 -2.73445845e-01  2.48790696e-01
  -1.89889874e-02  9.98410434e-02 -5.46824157e-01 -1.54678285e-01
  -5.92713237e-01 -2.81299084e-01 -2.47290492e-01  4.76553857e-01
   2.15775475e-01 -1.00359201e-01 -1.47479773e-01 -3.77805978e-01
   3.77101302e-01  1.57939792e-01 -1.05443370e+00  5.30517459e-01
  -9.68662620e-01 -8.84161443e-02 -2.01648343e-02 -3.65942367e-03]
 [ 4.01918650e-01 -2.14686811e-01  8.44797969e-01 -4.94364768e-01
  -3.42364907e-01 -2.65904844e-01  2.13059232e-01  4.65553671e-01
   6.15374625e-01  3.19206476e-01 -7.63841033e-01 -3.89726281e-01
   1.15479827e+00 -4.80913222e-01 -3.65323871e-01  6.16228461e-01
  -9.94502231e-02  2.49113515e-01  4.51850384e-01  5.10724604e-01
  -3.41612995e-01  9.64233935e-01  2.88087249e-01 -1.18458681e-01
   4.87435639e-01 -5.41145980e-01 -1.82406172e-01  2.90105730e-01
   4.17082235e-02 -3.44546556e-01  1.31426290e-01  4.95508639e-03]
 [-3.42522591e-01 -5.21519125e-01 -3.01571786e-01 -2.28019148e-01
   2.20918626e-01 -1.63914502e-01 -6.39937162e-01  3.57137233e-01
  -1.05420005e+00  2.07949638e-01 -5.06792903e-01 -4.67622846e-01
   1.10865831e-01 -3.24972153e-01 -5.35518229e-01 -4.71683517e-02
   6.71191514e-01  2.10658714e-01  2.95853943e-01 -4.40070331e-01
   5.02683371e-02 -8.59134257e-01  4.94264998e-03 -8.94751966e-01
   1.98402718e-01  3.03809159e-02 -3.39333378e-02  3.17417860e-01
  -5.00220537e-01 -2.36347646e-01 -1.17310822e+00  2.88672864e-01]
 [-4.89117324e-01 -7.46376157e-01 -5.23152292e-01 -5.74979365e-01
   2.17456251e-01  3.01413149e-01 -1.97443321e-01  4.95324194e-01
   5.12341201e-01  4.79653090e-01 -3.62295538e-01  3.20315152e-01
  -9.85380411e-01  3.72506618e-01 -4.04842794e-02 -2.11525872e-01
  -6.03848577e-01 -2.90704537e-02  2.43146524e-01  4.22190130e-01
   2.05707982e-01 -1.20807169e-02 -6.45793527e-02 -4.19614345e-01
   6.42793059e-01 -2.97163367e-01 -1.17961802e-01  5.94372213e-01
  -5.89785814e-01  3.43446374e-01 -2.02582136e-01 -2.57584155e-01]]
dense_6/bias:0
(32,)
[ 0.31063846 -0.17059037  0.19436754  0.21158686 -0.36599433 -0.05947573
 -0.3494878  -0.09488878  0.19955994 -0.2995581   0.05907237 -0.2909766
 -0.06826768 -0.23058495  0.27966312 -1.1083872  -0.4681842  -0.04388795
  0.02101845  0.14855449 -0.1763808  -0.31797782 -0.00546644  0.24526478
  0.29636985 -0.22146672 -0.00356111 -0.41182995  0.02829276 -0.42261213
 -0.18386835 -0.24697   ]
dense_8/kernel:0
(32, 4)
[[-0.723188   -0.46144214  0.34613642 -0.08208124]
 [-0.24561016  0.71569985  0.96466     0.05162165]
 [-0.4441754   0.5657152  -0.2865484   0.11403164]
 [-0.749762    0.03305027  0.57724226 -0.08008518]
 [ 0.21640103  0.04357138 -0.11203529 -0.27575   ]
 [-0.231773    0.14231426 -0.32895613 -0.02087761]
 [ 0.48094016 -0.59357953 -0.15747559  0.31248143]
 [-0.06125408 -0.35136327 -0.26323274 -0.430621  ]
 [-0.6528934  -0.68159914  0.49741307 -0.22079583]
 [-0.16900942 -2.0558252  -3.6465466   0.01920552]
 [ 0.2006336  -0.65976954 -0.26757172  0.19876507]
 [-1.0390195   0.2647948  -0.865124   -1.6873838 ]
 [-0.508428   -0.70770496 -1.0628554   0.01811866]
 [-2.2148612  -0.55875725 -0.22902374  0.00704297]
 [-1.3987956   0.08008873 -0.9552995   0.19406582]
 [-0.09525712 -0.11067954 -0.5104886  -0.47054225]
 [-0.6283718  -0.09368189 -2.6546972  -0.1762757 ]
 [-0.04249375 -1.0030266  -0.66121906  0.04005417]
 [ 0.4987176  -0.48597685 -1.1866425   0.22777824]
 [-0.668535   -0.04837372 -0.6988606  -0.2590812 ]
 [ 0.1160794  -0.19832797 -0.57282305 -0.25534856]
 [-0.35651797 -0.9167212  -0.5461535   0.2929862 ]
 [-1.4094718  -0.03822925 -0.03201066 -0.34395856]
 [ 0.08078413  0.12519518  0.23432541 -0.38563097]
 [-1.2775341  -0.36591578 -0.12803562 -0.22905187]
 [-0.23075686  0.03937628 -2.7875547   0.12312005]
 [ 0.32171372 -0.08490374  0.15918884 -0.6408531 ]
 [ 0.28813395 -0.79079413 -0.7327459  -0.99458826]
 [-0.36902353 -0.30887777 -3.8468688  -1.4030728 ]
 [-0.68862534  0.56699336  0.37772027 -0.58349466]
 [ 0.14042102 -0.5884654   0.01530639  0.32272217]
 [-0.34871066 -0.21100993 -0.5796206  -0.4975551 ]]
dense_8/bias:0
(4,)
[0.16814059 0.3411716  0.08907305 0.34861356]
dense_7/kernel:0
(32, 8)
[[ 0.3338473   0.25672188 -0.03036268 -0.37974098 -0.16534515 -0.18144664
   0.20577289 -0.43019807]
 [ 0.57838184 -0.10007004  1.419946    0.57046676 -0.6776038   0.6877656
  -0.53333116 -0.73283935]
 [-0.8335017  -0.4053306  -0.33173934 -0.43161157  0.25690013  0.31578937
  -1.2985872  -0.27882215]
 [ 0.06843281  0.16952585 -0.66021705  0.32153857  0.08664408 -0.00296837
   0.42770582  0.4470321 ]
 [-0.12235574 -0.04962827  0.24466892 -0.29111084 -0.37557453  0.4357228
  -0.1696561   0.23456484]
 [-0.53943133  0.36834487 -0.48146412  0.04381184 -0.99658823 -0.75290656
  -0.5802534   0.1573222 ]
 [ 0.37584975  0.16051558  0.45756042 -0.34140265  0.66168344 -0.9930872
  -0.2769917  -0.25021362]
 [-0.19028133 -0.33632007 -0.02333987 -0.37253436  0.05328045 -0.29354408
   0.28812942  0.15532789]
 [-0.5133268  -0.22430614  0.28660423  0.01944087  0.19963574  0.24190879
  -0.21910103 -0.07273255]
 [-0.01317643 -0.5349799  -0.364719   -0.04831737 -0.5611092  -0.08350617
  -0.22405453 -0.43021795]
 [-0.1556785  -0.4486561   0.35232523 -0.04886556 -0.14205655 -0.12955438
   0.05463045 -0.41385794]
 [-0.34097818 -0.27569816 -0.2436375   0.09365428 -0.08059217 -0.22562985
  -0.09402099  0.02832484]
 [ 0.09947219  0.5581207  -0.35054472 -0.00291737  0.20128074 -0.4907384
   0.8443241  -0.16549614]
 [ 0.31598896 -0.19627813  0.20357357  0.21206526 -0.03130275  0.27739128
   0.22790611  0.21773893]
 [ 0.34527105 -0.43518645 -0.09345517  0.1003414   0.01666346 -0.02459321
  -0.41455954 -0.29116982]
 [-0.35722613  0.46861643  0.55878824 -0.19905488 -0.13973883 -0.01316941
   0.51158327 -0.46077794]
 [-0.19293256 -0.08005093  0.13040788  0.5574469  -0.07806103 -0.24838264
  -0.09018838  0.38493186]
 [ 0.07584035  0.45236468  0.28819624 -0.00553578 -0.06446861 -0.03435909
  -0.29980054  0.21525304]
 [ 0.4796938  -0.03962005 -0.10513537 -0.83635134  0.12818088  0.24744982
   0.2438459   0.10355981]
 [ 0.6022888   0.1789157  -0.10879655 -0.2233799  -0.15444852  0.05602548
  -0.6871924   0.2295599 ]
 [ 0.38774407 -0.4463038  -0.01120747 -0.1842848  -0.313656    0.38475415
  -0.34491822 -0.09416405]
 [ 0.5437093  -0.15337127 -0.04912108  0.25153401  0.80394524 -0.2090663
   0.16421826 -0.24301946]
 [ 0.4173374  -0.05437409 -0.23180683  0.3513765  -0.29009154  0.0413977
  -0.29525706 -0.16905591]
 [-0.31060424  0.07619689  0.6453304   0.11306901  0.64626515  0.30645955
   0.23647626  0.32596883]
 [ 0.15875484 -0.30265296 -0.44623458  0.28377202  0.03954252 -0.03698287
   0.07267863 -0.1221798 ]
 [-0.10062619  0.25125465 -0.27207732  0.46361992 -0.07762264 -0.49696243
   0.14200956 -0.1891521 ]
 [-0.18550244  0.36870188 -0.04573019 -0.02183052  0.25681615  0.31466657
  -0.23479174  0.37962788]
 [ 0.0445069   0.08957046  0.22306688  0.08993908 -0.1343644   0.31875262
   0.20136403  0.49211818]
 [-0.58271056 -0.15498148  0.08495142  0.16099495  0.35057673 -0.3501771
   0.1635686   0.48991254]
 [-0.24640028  0.19039853  0.790015    0.0295905  -0.0549316  -0.58601123
   0.2251038   0.18332468]
 [ 0.29335758 -0.01000132 -0.19697535  0.30851868 -0.40065438 -0.66293454
  -0.03142393  0.48114398]
 [ 0.2893571   0.14524633  0.20333685 -0.07112172 -0.01594763 -0.38821644
  -0.08649071 -0.13409308]]
dense_7/bias:0
(8,)
[ 0.18892518  0.3913767   0.23472944  0.47192016  0.41747004  0.03490589
  0.43461534 -0.14239925]
dense_9/kernel:0
(20, 32)
[[-4.65538591e-01 -1.28014609e-01  6.47747040e-01 -5.95109940e-01
  -9.47817028e-01 -4.08361197e-01  1.70886844e-01 -4.37591642e-01
  -4.29383293e-02 -4.79509979e-01  4.21705395e-01 -4.00705814e-01
   5.91919273e-02  1.46030873e-01  8.40044245e-02 -1.50225297e-01
  -4.89536017e-01  6.45504534e-01  8.59969795e-01  4.33517784e-01
   6.39972150e-01 -6.19993150e-01  5.65435469e-01 -1.53419804e-02
  -2.38092393e-01  1.43444806e-01  6.03073239e-01  7.81575024e-01
   3.16273943e-02 -2.52479881e-01  1.09158194e+00 -4.54873204e-01]
 [ 7.69942880e-01 -7.85942748e-03 -7.55982697e-02  3.91000867e-01
  -2.06085801e-01  4.31233734e-01  1.32669225e-01  1.06215644e+00
   2.46713713e-01  9.75678146e-01 -1.70877948e-01 -7.00815260e-01
   1.13310978e-01  9.41636562e-01 -4.49661493e-01 -1.09521914e-02
   5.18742979e-01  6.70682192e-01  5.48090875e-01  3.07419479e-01
   8.80144715e-01  1.04916757e-02  8.13054383e-01  3.09140440e-02
   3.33518058e-01 -7.47218013e-01 -1.66395962e-01 -5.59376299e-01
  -3.25136393e-01  6.64587855e-01  7.46715903e-01 -8.78690124e-01]
 [ 5.96368492e-01 -7.63361529e-02  2.01646984e-01 -5.48786402e-01
  -6.71517491e-01  2.82107115e-01 -2.38442600e-01  5.10911405e-01
   5.58645129e-02  8.35164683e-04  4.96593893e-01 -7.83276320e-01
  -5.22045083e-02  1.67423859e-01  1.79194540e-01 -4.09512997e-01
   6.64078772e-01  3.95313680e-01  3.18468332e-01  6.00105286e-01
   7.09246814e-01 -7.69562483e-01 -3.77469450e-01  5.57913721e-01
   1.23648651e-01  2.36822382e-01  1.69313788e-01 -5.78846514e-01
  -4.28344518e-01  2.40529358e-01  6.81624293e-01  3.86080295e-01]
 [-2.34229073e-01  2.27712035e-01  5.45530207e-02 -4.90584195e-01
  -9.72912669e-01 -3.88745993e-01  1.16292584e+00 -1.27417311e-01
  -7.30658531e-01  4.89878446e-01 -5.77042758e-01 -7.99774885e-01
  -3.95137936e-01 -5.59720159e-01 -3.25075805e-01 -2.91174114e-01
   2.22395167e-01  4.83275056e-01 -4.10189107e-02 -4.81498092e-01
   7.76774824e-01  7.55989194e-01  5.14797091e-01 -2.12563008e-01
  -1.42182410e-02  3.13386321e-01  5.75440228e-01  5.63354492e-01
  -6.24953985e-01  7.27040768e-02  6.27548277e-01  4.99695301e-01]
 [ 1.92775484e-02  1.76318094e-01  6.35913238e-02 -3.78562093e-01
  -7.32759237e-02 -5.33811033e-01 -3.76526862e-01 -6.79896414e-01
   2.72387922e-01 -5.21473825e-01 -2.23699868e-01 -1.21230548e-02
   1.87430471e-01  3.74615848e-01  3.22872013e-01  1.17746390e-01
  -1.61846787e-01 -3.99835408e-01 -5.06767571e-01 -4.23804522e-01
   3.99876237e-02 -5.42548895e-02  6.69519305e-02  3.20044577e-01
   1.11348210e-02 -4.34445590e-01  2.52783716e-01 -1.62778541e-01
   1.49226010e-01  5.62176764e-01 -1.71307474e-01 -2.16591477e-01]
 [ 3.05766046e-01 -1.99921146e-01 -1.24512091e-01  9.92392153e-02
  -7.45400414e-02  6.15079641e-01  1.22645289e-01  3.09137583e-01
  -1.56655505e-01  4.40378517e-01 -5.98412640e-02 -5.50943986e-02
  -1.99950844e-01  7.11249113e-01  6.49833560e-01  1.53004220e-02
   5.70612550e-01 -2.40526766e-01 -7.21084997e-02 -3.08650434e-01
   1.41538665e-01 -3.24037015e-01 -8.18947554e-02  5.33516526e-01
  -8.61490518e-02  1.15162742e+00  7.65494287e-01  6.09113097e-01
  -8.31998587e-02 -2.57684410e-01 -5.09561114e-02  2.48695672e-01]
 [-1.85922474e-01 -8.22589248e-02  5.03804505e-01 -2.36279041e-01
   1.82360947e-01  2.98806638e-01  2.12881953e-01 -1.41263202e-01
   4.08805609e-01 -6.91216812e-02 -5.91169178e-01  9.67988893e-02
   5.11204362e-01 -6.36211097e-01 -2.05020934e-01  3.05599332e-01
  -7.80825555e-01 -3.98999542e-01 -2.39197120e-01  1.01280339e-01
  -8.34859312e-02  1.27817035e-01 -2.66484261e-01 -8.83832276e-01
  -1.05545387e-01  3.17016579e-02 -5.59225440e-01 -2.80407369e-01
  -2.38973394e-01  1.80173650e-01 -2.68438339e-01 -4.99022752e-01]
 [ 6.64876103e-02  3.84849191e-01 -1.88776270e-01 -4.62686658e-01
   3.74706209e-01 -1.05090931e-01  1.67836696e-01  4.96220551e-02
  -1.22702211e-01 -1.23789810e-01 -5.96513376e-02 -9.43395495e-02
   5.57159185e-01  3.95152241e-01  1.80372149e-01  4.58939254e-01
   1.08476035e-01  2.48093277e-01  2.43504316e-01  7.70299956e-02
   1.60664305e-01 -2.14340046e-01  4.34929170e-02  6.24225378e-01
   2.48482004e-01 -2.20506579e-01  8.24067444e-02 -5.85440099e-01
   1.12819813e-01  1.77838223e-03  2.64541149e-01  4.75475267e-02]
 [ 2.53883779e-01 -1.51758671e-01  1.14482947e-01  1.42773315e-02
   5.88921905e-02  8.71182621e-01  2.43003935e-01  2.75839660e-02
   1.40957296e-01 -5.71503714e-02  5.30035675e-01 -1.34785965e-01
   1.19283414e-02  3.02046895e-01  2.66579360e-01 -5.63830554e-01
   1.71038602e-02  3.65236819e-01 -1.54644459e-01  6.78148568e-01
  -3.33264738e-01  3.20845425e-01  5.18847369e-02  3.57345939e-02
   8.09508488e-02  3.68518144e-01  5.27214170e-01 -2.00366899e-01
  -1.71851858e-01  1.77467745e-02 -9.42634866e-02  1.71889633e-01]
 [-2.25585848e-01 -2.98543572e-01 -3.99712384e-01  4.98623252e-02
   1.24864526e-01  4.69442122e-02  5.49809523e-02 -1.60265669e-01
   2.67658293e-01  2.45709240e-01  3.61234903e-01 -3.97403464e-02
   1.04792126e-01 -1.02766827e-01  2.83061624e-01  1.17839739e-01
  -1.10320829e-01  1.60031095e-02  4.41011637e-01  6.60112798e-01
   1.51594982e-01  4.23184335e-01  5.71596742e-01  6.81281567e-01
  -2.03882884e-02  7.57482409e-01  5.64746633e-02  5.04233800e-02
   2.17097118e-01 -2.35123008e-01  6.01491705e-02  4.10867095e-01]
 [-1.78814664e-01 -1.21792406e-01  1.12927109e-01  3.34414765e-02
  -9.73789468e-02  5.41434169e-01 -4.56803069e-02 -3.03978592e-01
   1.20180100e-01  5.81631064e-02 -1.68542042e-01  1.96046904e-01
   2.19393596e-01  2.54925609e-01 -7.92286545e-02 -3.75815541e-01
  -1.15350351e-01 -3.00755531e-01  5.67915022e-01  7.55353749e-01
  -1.20462194e-01 -3.44736576e-01  2.82584634e-02  1.51519939e-01
   6.07907325e-02 -7.64309406e-01  1.45164654e-01  1.53128847e-01
  -2.86373168e-01  4.92248498e-02 -1.23751193e-01  3.07292398e-02]
 [-4.96510714e-01  1.20376371e-01 -1.69417381e-01  2.17818528e-01
   1.33992374e-01  3.74041195e-03  5.80389015e-02  1.57759756e-01
   5.38319461e-02 -3.35057266e-02  2.21592426e-01  1.46078855e-01
   8.18698406e-02  1.47069439e-01  4.72972989e-01 -9.25669521e-02
  -2.60872453e-01 -5.28171659e-01 -3.55477512e-01  7.64789134e-02
   8.24035630e-02 -4.44606580e-02 -3.10297459e-02 -1.78516135e-02
  -1.92608200e-02 -6.95324838e-01 -8.85729253e-01  2.92758256e-01
  -2.67595261e-01  7.53217936e-02 -7.39822909e-02 -2.44417608e-01]
 [ 1.54274732e-01 -2.34163076e-01  2.38545120e-01  6.46131396e-01
  -6.12802953e-02  5.00330552e-02  4.21844959e-01  2.17426881e-01
   5.29222846e-01  2.56447673e-01  1.64113730e-01  6.39411528e-03
  -3.91568504e-02  4.80576634e-01 -3.85082215e-01  2.90036462e-02
   3.24545354e-01  7.44831800e-01  3.98162985e-03 -3.32768500e-01
   5.40584147e-01  2.51809984e-01 -6.46295667e-01  4.93180007e-01
   1.23570457e-01  4.49236818e-02 -2.09847927e-01 -6.09285310e-02
  -5.10556519e-01 -8.94334763e-02  2.87018627e-01  2.06481650e-01]
 [-4.00988907e-01  3.10834870e-02  5.05923592e-02 -4.65048999e-01
  -1.00460008e-01  5.66086769e-01  4.85467389e-02 -1.98959991e-01
  -1.09247363e+00  1.82406202e-01 -1.12213564e+00  5.53044267e-02
   1.36716500e-01 -1.08087158e+00 -4.33563918e-01 -1.30139828e+00
   1.46389212e-02 -1.38954595e-01  9.69668865e-01  1.30528855e+00
  -4.38924432e-01 -2.76378065e-01  5.35220146e-01 -9.20245826e-01
  -7.88082123e-01  2.11210534e-01  5.37686609e-02 -2.29156554e-01
  -1.22711100e-01  4.76265967e-01 -4.11217332e-01 -1.01507831e+00]
 [ 4.25365329e-01 -5.93199395e-02 -3.58948082e-01  5.67118287e-01
  -6.24167800e-01 -5.85849643e-01  9.97539163e-02  9.01374161e-01
  -2.85329938e-01  6.66661620e-01  9.66095984e-01 -7.40849972e-01
   1.81045886e-02  5.06245553e-01 -1.86414003e-01  2.48156965e-01
  -2.71133006e-01 -6.64940774e-01  1.32479966e-01  4.75558698e-01
   2.12688476e-01  1.28996179e-01  2.27725178e-01 -1.63303152e-01
   6.06631450e-02  6.29076421e-01  5.11628509e-01 -3.25071126e-01
  -9.40826952e-01  2.12600037e-01 -5.10932207e-01  5.69832504e-01]
 [ 6.56130075e-01 -8.72583166e-02  1.16330588e+00  8.95949006e-02
  -8.49746108e-01 -5.22703648e-01 -4.84746635e-01  5.82982421e-01
   3.15267175e-01 -1.28384531e-01 -1.92145810e-01  6.13507330e-01
   1.53365925e-01  8.34727958e-02 -4.53627616e-01  3.60315859e-01
  -4.07588601e-01  6.95635498e-01 -7.22173929e-01 -3.40739697e-01
  -8.25506270e-01  1.35352656e-01 -4.10784990e-01 -2.86210719e-02
  -2.13966876e-01 -6.50828481e-01 -4.90109503e-01  7.64334723e-02
  -5.15627325e-01 -7.97030449e-01 -1.01439881e+00 -2.28967637e-01]
 [ 7.45088011e-02 -7.34036803e-01  3.46282661e-01  4.04213220e-01
   3.76250029e-01  8.65588188e-01  3.61151397e-02  5.77039048e-02
  -2.64075637e-01 -5.51044226e-01  4.15177375e-01  4.74962384e-01
  -1.14734955e-01  3.28972101e-01 -2.25707814e-01 -1.97921365e-01
  -1.16716020e-01  1.42445073e-01 -4.45269756e-02  3.86332214e-01
   4.00920302e-01 -2.99776107e-01  3.42594087e-01 -7.96135664e-02
   2.48741984e-01  2.31099561e-01  1.36488825e-01 -7.92491809e-02
   5.19410610e-01 -1.10790506e-01  6.92640126e-01  4.19514984e-01]
 [-3.14659595e-01 -8.24050605e-02 -1.32586911e-01 -8.92107546e-01
  -2.46557340e-01  2.02500727e-02 -1.41262352e-01  1.78296998e-01
  -8.58958811e-02  3.16671342e-01 -4.66732502e-01  4.52943921e-01
  -9.78522673e-02  3.60564709e-01  6.49811029e-01 -5.65572262e-01
   5.44800997e-01  7.07205176e-01 -2.01772496e-01  8.17490369e-03
   4.07233864e-01  2.37550326e-02  3.00074458e-01  4.43035632e-01
  -6.04568541e-01 -6.25299871e-01 -2.21892357e-01 -3.09182912e-01
  -1.10204905e-01 -5.68248987e-01  4.38029379e-01  2.25375786e-01]
 [-2.85492688e-01  5.52838981e-01 -8.32564309e-02  5.46982408e-01
   3.55101347e-01 -3.65130544e-01 -3.26905966e-01 -3.62026840e-02
   2.39684284e-02 -3.14198703e-01 -4.35475647e-01  7.59501219e-01
  -4.84327942e-01 -5.27743660e-02  9.00195599e-01  4.70547155e-02
   1.13618922e+00 -1.68722972e-01 -2.75181562e-01  4.44780171e-01
   7.89961398e-01  1.65703863e-01 -6.90755188e-01  1.90209374e-01
  -2.80394614e-01  8.01066458e-02  9.06427652e-02  2.53255278e-01
  -3.52277547e-01 -3.64492416e-01  3.98422778e-01 -4.31275129e-01]
 [ 2.83846825e-01 -5.87803304e-01 -1.77662179e-01  1.53087601e-01
   4.49130505e-01  1.51017487e-01  1.72874868e-01 -3.86145443e-01
  -4.74397361e-01 -8.19895491e-02  8.95444453e-01  5.69972396e-01
   1.36548609e-01 -1.49094179e-01  4.51151669e-01 -1.47785679e-01
   6.93944156e-01  6.28280401e-01 -2.02601716e-01 -8.05519894e-02
   5.86631358e-01 -1.01922892e-01  6.62199855e-01  4.86068815e-01
  -1.37088016e-01  6.96945786e-02  3.71703863e-01  3.04413497e-01
   7.73512423e-01  1.80536658e-01  5.09456933e-01  4.37255055e-01]]
dense_9/bias:0
(32,)
[ 0.44046083 -0.2932248  -0.9324392  -0.24913174  0.17385511  0.07610187
  0.43577147  0.08023246 -0.0148766  -0.49546212  0.14897577 -0.01759079
  0.16118537  0.3168753   0.21194232 -0.0665359  -0.72683257 -0.4460805
  0.0260507  -0.0137863  -0.9755296  -0.979654   -0.34797928 -0.35723972
 -0.36501187 -0.3231809  -0.2568168  -1.2172155   0.00957221 -0.336358
 -0.06429254 -0.30716825]
dense_11/kernel:0
(32, 4)
[[ 0.21928765 -0.34039748 -2.1787393  -0.33418062]
 [ 0.48879588  0.9373551   0.04535936 -0.40788752]
 [ 0.3729347   1.3280007  -0.05380086  0.25439402]
 [ 0.87768096  2.5664742  -0.89900434  0.88845825]
 [ 0.22240147  1.6375986   0.19466615 -2.5720036 ]
 [ 0.19101608  0.58306634  0.7514886  -0.55401784]
 [-0.01402023 -0.06508235  0.13559067  0.18575191]
 [ 0.805318   -0.89250076 -0.5173799  -0.70529133]
 [ 0.09268349 -0.56229484 -0.5327524  -0.24069676]
 [-0.72684216  0.3860284  -1.0631158   0.05854029]
 [ 0.49203774  1.2290665  -2.3057008   0.54186636]
 [ 0.35115978  1.6136838  -0.2641624  -0.43095037]
 [ 0.9110235   0.10781112 -0.4887931  -0.25348297]
 [-0.85461676 -0.1783857  -0.16687833 -0.28660652]
 [ 0.78503114  0.51370496  0.42266634  0.14067668]
 [-0.38242012  0.56063205  0.04272222 -0.35210565]
 [-0.583181    0.74113315  0.13752623  0.7642672 ]
 [ 0.30020756 -0.26322284  0.7912513   0.69646436]
 [ 0.27077237  0.63842475  0.5190146   0.19528075]
 [ 0.05316843 -0.11416273  0.38137212 -0.7473276 ]
 [-0.66973805  1.1200942  -0.9280683   1.11379   ]
 [ 0.31041104  1.2510474  -0.11863236 -1.8620839 ]
 [-0.42763835 -0.7143351  -0.75062513 -0.34209234]
 [ 0.7623197  -0.5007801  -0.5881433  -0.7393686 ]
 [ 0.24796616 -0.02164763  0.03485034 -0.2665525 ]
 [-0.07875728  0.42289433 -0.26842248 -0.7502686 ]
 [-0.08512393 -0.30520973  0.05592156  0.19432269]
 [ 0.32546866  0.05650319 -0.7483229  -0.43601373]
 [-0.03190921  0.91772926 -0.9241199  -0.26314187]
 [ 0.43660277  0.96885145 -0.1164549  -1.1070517 ]
 [ 0.31530306  0.13847524  0.33561411  0.20463155]
 [ 0.00330803 -0.34961534 -0.5348119  -0.19786483]]
dense_11/bias:0
(4,)
[-0.6955158  -0.11857049  0.0991096   0.59181803]
dense_10/kernel:0
(32, 8)
[[ 0.55721456  0.16573851  0.06231789  0.09650937 -0.26449385  0.5222936
  -0.16498621 -0.3017816 ]
 [-0.13195136  0.59594035  0.21843632  0.03407702  0.15295483 -0.06748156
  -0.25773057  0.17221612]
 [ 0.3280529   0.11470298 -0.28985357 -0.2564845  -0.17125653 -0.18088359
   0.21855493  0.12609798]
 [-0.23565525 -0.25308418 -0.15783124  0.3854024  -0.10554612  0.46284688
   0.17224811  0.7381368 ]
 [ 0.04730076 -0.08479316 -0.19776408 -0.8349352   0.08097041  0.5118217
  -0.26141763  0.36544725]
 [ 0.18146795 -0.53276503  0.7235349  -0.46891606 -0.28390443  0.24069844
   0.17940871 -0.2552582 ]
 [-0.10368229 -0.41121113 -0.13905016  0.02035706 -0.26221904 -0.1404548
  -0.36174446  0.5320445 ]
 [-0.16511944  0.47774008 -0.28558895  0.07390407 -0.2062471   0.04153417
  -0.43969998  0.26823038]
 [-0.04625633  0.40718913  0.3379533   0.27350858  0.34701714 -0.10322906
   0.17604434  0.1505289 ]
 [-0.46669734  0.19281892  0.14476734  0.06364713  0.10809344 -0.5065449
   0.01450659  0.34040347]
 [-0.60307986 -0.34632412 -0.031868    0.20699695  0.14291373  0.3021566
   0.15074667  0.0714187 ]
 [ 0.37602744 -0.3454425   0.17692797 -0.9902503   0.608707    0.1725783
  -0.5890728   0.09087863]
 [-0.11913364 -0.12297518  0.06859323  0.09411115 -0.43785042 -0.24625397
   0.04539269 -0.144148  ]
 [-0.19972143  0.7924326  -0.5140267   0.03066478 -0.18608329  0.3381088
  -0.07717515 -0.34524724]
 [-0.11157555  0.37551817  0.28103498 -0.04035477 -0.21732803 -0.18525678
  -0.02114961 -0.16909002]
 [ 0.23321228 -0.10436146  0.29049596  0.32086307  0.00801823  0.49505
   0.16034922 -0.07210129]
 [ 0.05854017 -0.8333207   1.0950896  -0.08208521  0.45319608 -0.15011634
  -0.06937099 -0.8299114 ]
 [-0.51946896  0.20947385 -0.12552643 -0.48338598 -0.24909282 -0.8815198
   0.7220748   0.14550522]
 [-0.0943391  -0.16153193  0.27269825 -0.49163228  0.00484627 -0.29817635
  -0.24700326 -0.45654646]
 [-0.3937427   0.3540046  -0.13420424  0.00565749  0.01321363  0.62684107
   0.08495945 -0.35882413]
 [ 1.1012516   0.8535868  -1.1945691   0.26154834  0.58694315 -0.8609176
   0.3514684   0.7945983 ]
 [-0.12330065  0.5294977   0.10525328 -0.23731534 -0.02694601  0.14045186
   0.33548805 -0.24878474]
 [ 0.4445675  -0.8942081   0.10338932  0.19635     0.37614298 -0.57132107
  -0.30876425  0.86171716]
 [-0.5170285  -0.21993904 -0.17485449 -0.14073814  0.01636302 -0.48817384
  -0.16625027  0.88086396]
 [-0.24256934 -0.0979038  -0.26062104  0.12092986 -0.29229343  0.20122284
   0.3503385   0.24981001]
 [ 0.31612056  0.32894734 -0.91877085 -0.6447273  -0.04614538 -0.77251613
   0.7859444   0.17684777]
 [ 0.756419    0.3905459  -0.0607862  -0.36508787  0.02682016  0.1576812
   0.00905511  0.17991792]
 [ 0.10823653  0.14053833  0.7826904  -0.16145329 -0.21986113 -0.12051132
  -0.3859108   0.01524437]
 [ 0.3767174  -0.2586684   0.14538996 -0.00767125  0.2804941  -0.31282178
   0.05951488 -0.22505003]
 [ 0.34287634 -0.1273165  -0.08703142 -0.08569468 -0.4672487  -0.16453364
  -0.10341983  0.02673634]
 [ 0.07663875  0.5117694  -0.7754291  -0.74531186  0.04208649 -0.5630808
   1.1052722  -0.1970367 ]
 [-0.25176615  0.42542186  0.3768232  -0.05995419 -0.26538244  0.13126634
  -0.29283354 -1.1209278 ]]
dense_10/bias:0
(8,)
[-0.05475626 -0.19187497 -0.12408074  0.49095374  0.32480228  0.06467847
 -0.6447502  -0.21592304]
dense_12/kernel:0
(20, 32)
[[-4.10107784e-02 -4.16165829e-01  8.10594082e-01 -9.57779586e-02
   4.57270324e-01  3.84728700e-01 -2.16479287e-01 -1.36849582e-01
   4.90569085e-01  7.42161795e-02 -3.19195896e-01 -1.82996228e-01
  -5.65063022e-02  1.14269279e-01 -2.14930519e-01 -2.10210130e-01
  -8.62456858e-01  4.21711832e-01  5.81093490e-01 -7.36924633e-02
  -4.77852255e-01  1.29744127e-01  2.21222743e-01 -2.23178044e-01
   1.11893094e+00 -1.45387828e-01 -3.15806359e-01 -8.70174587e-01
  -1.61998495e-01 -2.62538284e-01  1.36510849e-01 -8.36330503e-02]
 [ 7.41630673e-01 -4.09414202e-01  5.06521761e-01  2.58215904e-01
   7.40117550e-01  8.45769495e-02  2.45529935e-01 -1.62094329e-02
  -2.68411636e-01 -4.90723580e-01 -3.56354177e-01  4.98736292e-01
   7.56192058e-02  7.85090402e-02 -2.26008102e-01  1.59081146e-01
  -8.51760864e-01  9.05935884e-01  8.14776003e-01 -4.34403300e-01
  -6.93768799e-01 -2.10150808e-01 -3.75355314e-03  8.57899666e-01
   5.35846464e-02  3.15803021e-01 -6.85937285e-01 -3.19652736e-01
   4.53755051e-01  4.12865490e-01 -3.00233334e-01  7.29269385e-02]
 [-2.20144019e-02  1.78440183e-01 -2.66199678e-01  2.45138213e-01
  -7.44348228e-01 -7.95321167e-01  5.29947221e-01 -5.44302583e-01
  -1.87183693e-01 -3.59144658e-01 -1.46028429e-01  8.39626610e-01
  -1.65441126e-01 -4.74575609e-01  2.15142116e-01  3.81746650e-01
   5.61908424e-01  1.00955136e-01 -3.45282435e-01  3.64346951e-01
   5.47454000e-01 -1.99508607e-01 -1.88099250e-01 -1.02010369e+00
  -3.14401984e-01 -1.27406240e-01 -4.55452055e-01  8.01158726e-01
   2.44366914e-01  9.77580920e-02 -2.78921813e-01  2.41426110e-01]
 [ 4.15240645e-01  3.61747503e-01 -9.00058925e-01  2.10018214e-02
   7.13625969e-03 -6.17780030e-01  4.35000151e-01  2.53387451e-01
  -5.16559660e-01  9.31669325e-02 -6.25569746e-02  5.86165547e-01
   1.30383164e-01  9.37421620e-02 -5.21158457e-01  3.04996818e-01
  -3.34916025e-01 -2.81146497e-01  8.03337455e-01  3.05660546e-01
  -3.72244716e-01 -1.37383100e-02 -3.08496177e-01 -5.85519075e-01
   3.20748270e-01  1.80876493e-01  1.09172022e+00 -3.45252544e-01
  -2.13926464e-01 -9.50168788e-01 -2.42848188e-01  8.09017941e-02]
 [-2.64937971e-02  2.54308973e-02 -2.23157421e-01 -2.72605419e-01
   2.63384223e-01 -1.46344423e-01  1.01918623e-01 -5.77755213e-01
   2.56565779e-01 -1.42904788e-01 -6.53285861e-01  1.95087492e-01
  -5.67544885e-02 -1.02335356e-01 -5.77784553e-02 -8.74899447e-01
  -4.32737591e-03 -2.63312578e-01  5.26451245e-02 -7.42021874e-02
  -8.02426040e-02  4.71255541e-01  2.38140434e-01 -1.26112893e-01
   2.48944938e-01 -5.11735260e-01 -1.67652383e-01 -4.09470111e-01
  -7.62101412e-02  1.51510024e-02  7.87976980e-02  9.67549905e-02]
 [ 1.43007666e-01  6.63195550e-01 -6.81656227e-02 -1.14637506e+00
  -3.26717526e-01  4.05267552e-02  2.49977428e-02 -2.74031550e-01
  -1.83293335e-02  3.10186818e-02 -4.46438968e-01  2.14310274e-01
   3.81963462e-01 -8.41849670e-02 -2.44702682e-01  1.30029008e-01
  -3.61252069e-01  3.25827897e-02 -2.39254192e-01  7.66514763e-02
  -2.32670277e-01 -1.07260957e-01  2.76957065e-01 -3.16692978e-01
   1.09053791e-01  2.53512949e-01  2.93683875e-02 -4.03212428e-01
  -1.69745460e-01 -3.68273675e-01  7.13876367e-01 -1.46522066e-02]
 [-2.76847243e-01 -2.96040297e-01  3.57453555e-01 -4.73277450e-01
   3.39086860e-01  3.15664470e-01 -5.67607209e-02 -1.77911431e-01
  -1.15407802e-01 -1.52819036e-02  3.40555429e-01 -3.41270894e-01
   4.15524840e-01  2.64699578e-01 -1.14701815e-01  1.74947605e-02
  -3.96693289e-01  7.16515258e-02 -8.80087256e-01 -6.11068159e-02
  -1.06415577e-01  3.18533957e-01  1.15761906e-01 -2.86675036e-01
   1.47522360e-01 -4.98831838e-01 -1.82204708e-01 -1.90344855e-01
   1.74524840e-02 -8.52660984e-02  2.25875273e-01  3.31478894e-01]
 [-1.95154786e-01  6.86740279e-01 -1.51822016e-01 -1.88751966e-01
   2.73642808e-01  3.82610746e-02  2.44879156e-01 -1.98009714e-01
   2.31191337e-01 -2.23735511e-01  9.31568146e-01 -2.44263038e-01
   3.59494478e-01  7.08130449e-02 -1.33767892e-02  3.96409035e-01
   1.21897310e-01  2.10642055e-01  2.11502969e-01 -4.37259257e-01
   3.67844045e-01 -3.98661941e-02  2.60792524e-01  1.89683959e-01
   3.95882040e-01  3.36623676e-02 -1.31555498e-02  2.68170267e-01
   3.06868225e-01  8.23294580e-01  2.61809021e-01  2.32558530e-02]
 [-9.57457051e-02  5.95142245e-01  8.58023912e-02  7.90345609e-01
   6.72415718e-02  2.41897881e-01  2.33199582e-01  4.44963872e-01
   7.05778778e-01  4.85465437e-01 -8.31554830e-02  1.27487317e-01
  -2.83757359e-01 -4.24202699e-05  6.63046688e-02  5.74325025e-01
   6.88316599e-02 -1.30957603e-01  2.44116280e-02 -1.28328085e-01
  -4.95594889e-01 -6.29758835e-01  3.97992134e-01  2.87510872e-01
   3.43052715e-01 -2.04061314e-01  2.34151646e-01 -1.18577026e-01
  -6.60569593e-02  9.43191424e-02 -4.44122106e-01 -9.01997387e-02]
 [ 1.34627044e-01  8.96695852e-02  2.20325992e-01  2.21545011e-01
  -1.04527444e-01  4.43065584e-01 -7.19394311e-02  5.24511576e-01
   1.31552905e-01 -2.09214449e-01  2.26335943e-01 -1.84366792e-01
   1.29602641e-01 -5.00805564e-02 -2.18651488e-01  3.30076143e-02
   6.71989843e-02 -6.15646303e-01 -5.74787676e-01 -2.18794756e-02
  -5.10807149e-02  5.45289218e-02  9.48783904e-02  5.79400361e-01
   2.63032943e-01 -5.80006428e-02  1.06576979e-01 -3.31987858e-01
  -6.37819292e-03 -7.76367588e-03 -3.21224362e-01 -1.33809328e-01]
 [ 5.18875897e-01 -3.07601303e-01 -1.58257484e-01 -3.19696039e-01
  -8.93758014e-02  3.28447551e-01 -7.51621366e-01  1.52154505e-01
  -8.92501920e-02  8.16743299e-02  2.69696206e-01 -9.61201414e-02
   3.79184186e-01  5.33503145e-02  4.30284381e-01 -6.04007959e-01
  -1.13604084e-01  2.71008074e-01  1.83654442e-01  1.95758924e-01
  -5.31105474e-02  4.56314720e-02  3.57398838e-01  2.22491279e-01
   2.11589336e-01 -1.82293862e-01 -8.80761519e-02 -2.57717401e-01
  -2.85739034e-01  7.45421275e-02  8.02140757e-02  1.39249712e-01]
 [ 5.48500478e-01 -3.33265543e-01 -2.63074208e-02 -1.95573434e-01
   2.91481584e-01 -1.28527355e+00 -5.79523742e-01 -3.40261787e-01
  -1.17210710e+00  1.07382514e-01  9.74488035e-02  5.61212152e-02
  -3.15163732e-02  2.04740673e-01 -1.34139314e-01  1.05638849e-02
  -3.69413763e-01 -4.09542650e-01 -2.69605935e-01 -4.41873610e-01
  -5.33849597e-02  1.47712395e-01 -2.56089181e-01 -1.69473942e-02
  -1.45623699e-01 -2.15235069e-01  2.28592023e-01 -2.47596223e-02
   3.05199623e-01 -7.42429569e-02  2.55583562e-02  3.51373225e-01]
 [ 6.91098869e-01 -5.49016654e-01 -1.60124898e-01 -3.33427161e-01
  -2.55872719e-02  7.93134034e-01 -1.13669229e+00  5.24865210e-01
   4.47110862e-01 -1.00595486e+00  1.09957486e-01  1.01917315e+00
  -1.18064791e-01  7.16610610e-01  3.55987370e-01  1.23706693e-02
   5.85939705e-01 -6.87264562e-01  1.83316201e-01  6.29713774e-01
   7.87932932e-01  2.47324426e-02  7.01219141e-01  3.20610672e-01
   1.98068514e-01  8.31139684e-02  4.45552051e-01  8.69104266e-01
  -1.44930594e-02  3.50990534e-01 -1.80149004e-01 -5.88632077e-02]
 [ 8.35106708e-03  3.83343279e-01 -3.60381216e-01 -3.68645549e-01
   6.78559780e-01 -4.52643543e-01 -1.07936049e+00 -3.41179073e-01
   4.82408643e-01 -4.76648778e-01 -9.34091359e-02  4.04267251e-01
  -6.39230967e-01 -8.27491507e-02  1.92061067e-01 -2.64226079e-01
  -7.52869427e-01 -8.12427163e-01  1.53261974e-01  3.91967088e-01
  -3.72181207e-01 -1.65355548e-01  2.41990224e-01 -7.93563426e-02
  -2.48894244e-01 -9.13088098e-02 -5.29417336e-01 -8.63364816e-01
   2.50816405e-01 -1.04445405e-01  4.87067670e-01  2.77797282e-01]
 [-7.74597973e-02 -2.88340330e-01 -1.43791720e-01 -4.36350822e-01
   3.38994823e-02  2.93641686e-01 -2.52897650e-01  6.31128311e-01
  -1.91176057e-01  8.64059329e-01  1.77233666e-01  7.59170279e-02
   7.24621415e-02 -3.79094365e-03 -2.56029755e-01  5.70789874e-01
   6.12204969e-01  2.35680148e-01 -9.34702456e-01 -9.04959381e-01
  -2.64423668e-01  3.19138050e-01  7.30975568e-01  9.45891857e-01
   1.56445637e-01 -5.00206232e-01  6.09890282e-01  3.27998072e-01
  -2.47306079e-02  4.11998123e-01 -6.15308166e-01  2.04132617e-01]
 [-3.67189534e-02 -8.19546282e-01  1.81424633e-01  5.81620216e-01
   1.78867221e-01 -2.99984097e-01 -2.80212581e-01  7.77714849e-02
  -3.81402791e-01 -7.84863114e-01 -7.50529051e-01  1.06624150e+00
  -2.71780640e-01  1.40694603e-01  2.28600219e-01 -7.86884576e-02
  -9.24311578e-02 -9.64559793e-01  5.62651932e-01 -1.52918756e-01
  -5.03390789e-01 -2.83713073e-01  7.93939471e-01  5.70316836e-02
  -2.10233435e-01  5.77362299e-01 -7.84782946e-01 -2.54134506e-01
  -4.98772323e-01 -8.80851209e-01 -6.78022087e-01  2.79965252e-01]
 [ 5.25220670e-02 -1.45357251e-01 -5.39863229e-01  1.77303046e-01
  -4.53244597e-01 -1.71421364e-01  1.73428714e-01  6.08994484e-01
  -2.34723464e-01 -7.99370557e-02  2.37133622e-01  3.80861431e-01
  -3.92439336e-01 -2.67329633e-01 -8.45327795e-01  3.03664178e-01
  -2.05661297e-01  2.99071111e-02  4.18963730e-02  1.98097661e-01
  -3.56616616e-01  4.50814396e-01  5.24348915e-02  7.34529018e-01
  -8.18759426e-02  3.06775838e-01 -1.53537884e-01 -5.17370217e-02
   6.75283492e-01  3.15110326e-01  1.22642264e-01  2.46698275e-01]
 [-1.88453104e-02 -5.55537760e-01 -3.15643936e-01  3.70359467e-03
  -6.77575171e-01  7.99276158e-02 -1.14673674e-01 -7.38296688e-01
   1.37680903e-01  1.18591733e-01  7.63004348e-02 -1.63532495e-01
  -3.85956056e-02  2.65582949e-01  5.25001764e-01  6.27811104e-02
  -5.88008054e-02 -4.03245628e-01  7.42302649e-03 -2.44753450e-01
  -2.53217757e-01  7.07843304e-01  1.22495107e-01 -5.12200236e-01
  -1.42009780e-01  5.17924786e-01 -4.10987556e-01 -1.58560112e-01
  -3.69166017e-01 -2.54523933e-01  7.33197406e-02  1.00698400e+00]
 [ 9.77620855e-02  1.73295990e-01  1.71308652e-01 -8.72710720e-02
   3.53933901e-01  2.01030564e-03  6.58484817e-01 -2.31108386e-02
   2.15044633e-01 -4.25823539e-01 -8.76228213e-02 -6.22779280e-02
  -2.90411592e-01  6.44144297e-01  4.00950134e-01 -7.97304809e-02
   4.03910011e-01  1.84610739e-01 -4.57793102e-02  9.80411656e-03
  -3.03511345e-03  4.20417124e-03  2.87616670e-01  4.59989548e-01
   7.25192204e-02  3.42805013e-02 -4.11584884e-01  2.58275986e-01
  -4.35749382e-01  3.39544326e-01  6.25859872e-02  2.00863674e-01]
 [ 7.70686194e-02  2.05900684e-01 -1.50613323e-01  1.82571396e-01
  -4.00501192e-01  7.93968081e-01 -9.12825540e-02  8.45592320e-02
   6.54957816e-02 -4.07014936e-01  2.36586928e-01 -3.66226882e-02
  -2.55267054e-01 -7.33920455e-01 -4.12274718e-01 -5.44128157e-02
  -7.91428030e-01  3.64096999e-01 -3.99079919e-01  4.68106478e-01
  -3.90269071e-01 -5.45414910e-02 -2.09910423e-01  4.61335123e-01
   2.94519514e-01 -8.62325504e-02  1.01421066e-01 -4.72354025e-01
   5.71328938e-01  1.35376781e-01  1.29836649e-01 -6.65253758e-01]]
dense_12/bias:0
(32,)
[-0.2802151  -0.42119136 -0.61897033 -1.0764765   0.35438833 -0.54486895
  0.40524337  0.66386485  0.03039302 -0.41968682 -0.38308236 -0.45221034
 -0.02214102 -0.21082476 -0.22070359  0.00809144 -0.41721812 -0.44500843
 -0.31839323  0.20255397  0.24113686  0.10279816  0.4877504   0.08167051
 -0.33210847 -0.5894574  -0.5341027  -0.06307191  0.382509   -0.19822116
  0.02627114  0.04277351]
dense_14/kernel:0
(32, 4)
[[-1.81957319e-01  5.92785060e-01  1.45758644e-01  2.23445863e-01]
 [-1.90129042e+00  1.36492074e-01 -2.99383640e+00 -6.27568066e-01]
 [-3.11179972e+00 -8.53842422e-02 -4.48574781e-01  5.38121760e-01]
 [ 6.73725367e-01 -1.13429174e-01 -4.35064971e-01 -1.99448109e-01]
 [-2.02580190e+00  4.08965647e-01 -1.91214141e-02 -2.08768159e-01]
 [ 5.32112479e-01  1.34971425e-01  1.88136995e-01 -3.56054038e-01]
 [-1.65251821e-01 -2.41477117e-01 -3.03969800e-01  2.17185155e-01]
 [-5.57433009e-01  5.48265874e-01  1.99393347e-01 -2.42678329e-01]
 [ 3.14504921e-01  2.61477470e-01 -8.69967639e-02  2.78611094e-01]
 [-5.15722930e-01  7.28637338e-01 -8.18135560e-01  2.53934413e-01]
 [ 8.12928304e-02  2.98179865e-01 -8.00811052e-01  8.29093933e-01]
 [-4.51877862e-01  3.17129970e-01  1.70893267e-01  3.90467107e-01]
 [-2.14869361e-02  3.02479267e-01 -1.18747078e-01  4.30387318e-01]
 [ 1.44523606e-01 -3.15830767e-01  3.28268558e-01  9.11874324e-02]
 [-7.11524785e-01  6.15190923e-01  4.41590488e-01  4.37991917e-01]
 [ 7.17664123e-01  3.74718606e-01  2.59754695e-02 -8.99519026e-02]
 [-4.20075417e-01 -3.82802449e-02 -1.29646826e+00  1.52265358e+00]
 [-5.75821519e-01  8.03740695e-03 -2.67730403e+00 -3.17454159e-01]
 [-2.32372154e-02 -1.60024107e-01  9.52244848e-02  1.24217123e-02]
 [ 5.82459792e-02  7.16047823e-01 -4.37740088e-01 -1.30428448e-01]
 [-1.58677727e-01  5.43960258e-02 -3.00510883e-01  1.88647385e-03]
 [-6.54782653e-02  5.44107378e-01 -7.84768522e-01 -1.31416872e-01]
 [ 1.47945806e-01  1.39837399e-01 -3.76040712e-02 -2.97477156e-01]
 [-1.44915032e+00  1.66040584e-01 -1.68853015e-01 -3.07230026e-01]
 [ 8.40007842e-01 -3.76826003e-02 -3.38465482e-01  7.95460269e-02]
 [-9.16707754e-01  4.88878697e-01 -1.23454936e-01 -3.66017848e-01]
 [-5.13369203e-01 -3.68307978e-01 -2.10053110e+00  1.64166355e+00]
 [ 3.94420147e-01  4.37413186e-01 -6.61165118e-01 -1.04183412e+00]
 [-1.38852215e+00  1.23187125e+00 -1.67575195e-01  8.86152864e-01]
 [-4.95978743e-01  9.40184370e-02  9.91528034e-01 -2.01458991e-01]
 [-1.24734902e+00  3.79413188e-01 -7.46624172e-02  5.25394976e-01]
 [ 2.59433925e-01  7.64049530e-01 -3.60963166e-01  1.78365910e+00]]
dense_14/bias:0
(4,)
[ 0.5969621   0.6053666   0.69389606 -0.4184367 ]
dense_13/kernel:0
(32, 8)
[[-4.30094637e-02  5.41908860e-01 -1.38414621e-01 -3.06214273e-01
  -1.43660933e-01 -1.41346201e-01  1.78197145e-01 -1.35697722e-01]
 [ 1.51455104e-01  6.26454204e-02  1.44891933e-01  7.31443465e-02
  -2.91732281e-01 -1.79244410e-02 -3.69045854e-01 -2.50508457e-01]
 [ 3.73891294e-02  1.05837673e-01 -6.44492581e-02  1.85397923e-01
  -1.08040921e-01 -3.71305972e-01 -9.41013753e-01 -1.61533862e-01]
 [ 1.35878539e-02 -1.43644288e-01 -1.14155464e-01 -1.71665892e-01
   2.92685360e-01 -3.33078742e-01  1.08785617e+00  1.03054678e+00]
 [-1.63300574e-01  1.53917804e-01 -7.11267516e-02  6.62846029e-01
  -5.58216155e-01  2.82314807e-01  9.12113488e-02 -4.78844523e-01]
 [-5.31448349e-02  3.26921493e-01  8.98973703e-01  1.52077115e+00
  -3.26449484e-01  3.23272198e-02  3.69389892e-01 -4.06167507e-01]
 [ 2.64430106e-01  3.32751334e-01 -1.66053399e-02  5.17604470e-01
   1.44690186e-01  3.79968971e-01  7.25427389e-01 -1.05990261e-01]
 [ 1.09555960e-01 -5.60516238e-01 -2.94904351e-01 -3.66071492e-01
   3.11923057e-01 -1.32587746e-01 -3.11542928e-01 -2.14259431e-01]
 [ 3.71161610e-01 -9.85481367e-02 -5.95988274e-01  2.39632547e-01
   1.61618501e-01 -4.79766689e-02  1.18103385e-01  5.57263732e-01]
 [ 2.80294567e-01 -3.04532886e-01 -7.62492642e-02  2.13288769e-01
   1.72133893e-01  2.12617904e-01 -9.72936824e-02  3.47850561e-01]
 [ 2.56235987e-01  7.49462768e-02  1.12449750e-01 -4.64045286e-01
  -7.85362814e-03  2.18781114e-01  4.05140966e-01  6.61780685e-02]
 [ 1.66596293e-01  2.41982445e-01 -1.16658583e-01  1.28815383e-01
  -7.80473696e-03 -4.50021714e-01 -5.14031351e-01  8.29711482e-02]
 [ 4.34637845e-01 -3.01181301e-02 -2.46241629e-01 -2.09472716e-01
  -1.65901929e-01  2.27872699e-01  1.15522072e-02  9.19747725e-02]
 [-4.00647819e-01  2.60432195e-02 -1.42596990e-01  3.97831231e-01
  -4.59241234e-02  4.47677225e-01  8.32059085e-02 -3.67756128e-01]
 [-3.11112434e-01  1.22354580e-02  1.56482294e-01 -2.81426579e-01
  -2.14456618e-01  2.25106388e-01 -3.07582080e-01  4.78602946e-02]
 [-4.81177978e-02 -3.74702215e-01  9.77925435e-02 -4.58743870e-02
   3.70149404e-01  1.32561669e-01  1.74986035e-01 -8.07188675e-02]
 [-3.14624131e-01  4.61554714e-02 -7.32334852e-01 -1.33378372e-01
  -9.05476138e-02 -3.80473360e-02 -3.38077009e-01  4.95992184e-01]
 [ 2.32124981e-02  6.05240583e-01 -1.47553414e-01 -1.47910386e-01
  -2.46104851e-01 -1.61727205e-01  5.27086779e-02 -4.91662830e-01]
 [ 4.17277440e-02  5.47662139e-01  5.41579843e-01  2.80973613e-01
  -6.60706937e-01  3.43083382e-01 -1.05889991e-01  4.28504229e-01]
 [-4.09041047e-01  8.56982097e-02  5.86102493e-02  1.61908537e-01
  -2.82731205e-01 -3.09167624e-01 -1.58479244e-01 -2.81747524e-02]
 [-8.12872127e-02  3.62567365e-01 -4.95291173e-01 -2.14466825e-01
  -4.77193952e-01  9.35747847e-02 -6.61697006e-03  7.13343993e-02]
 [-2.55190820e-01  2.38228351e-01 -4.49202210e-02  1.24204971e-01
   2.57255197e-01 -3.90177548e-01  4.67270255e-01  2.48978645e-01]
 [ 1.69006273e-01  5.59652448e-02  9.26707759e-02 -1.05554335e-01
  -1.72222145e-02  1.84472710e-01 -2.70217299e-01 -6.33592755e-02]
 [-5.13469994e-01  4.25551772e-01  1.55862510e-01  3.84513475e-02
   1.30300596e-01 -8.74971509e-01 -1.33791000e-01 -6.93763494e-01]
 [ 5.82521665e-04 -8.61181915e-02  1.14702292e-01  2.46300787e-01
   4.55877006e-01 -3.35660517e-01  2.38521080e-02 -1.50390178e-01]
 [-1.14900298e-01  1.91093653e-01 -2.85741150e-01 -5.82146682e-02
   2.74751872e-01 -4.98720668e-02 -6.22652797e-03 -2.73067714e-03]
 [ 7.73354530e-01  1.56342089e-02  9.54867974e-02  2.94652849e-01
  -2.00081155e-01 -2.45596662e-01  9.30259749e-02 -8.57154503e-02]
 [ 6.23380358e-04  3.02343778e-02 -5.80989122e-01 -2.81767905e-01
   7.54301324e-02  4.27347347e-02 -1.08906273e-02 -6.57124043e-01]
 [ 3.65634382e-01  1.18841603e-02  1.55013025e-01  3.63829643e-01
  -2.16065068e-02 -1.35753244e-01  1.75558329e-01 -1.33545667e-01]
 [-2.22712636e-01  2.17946112e-01 -1.69537589e-01  3.49488109e-02
   2.27289721e-01 -1.34237185e-01  2.10044950e-01  8.07675645e-02]
 [ 3.35497439e-01  4.04614419e-01  9.93326157e-02 -2.39341408e-01
  -6.30545616e-02 -1.89095899e-01 -9.97183621e-02 -3.82419139e-01]
 [-6.73304945e-02  4.59667176e-01  2.09043682e-01  7.78567046e-02
   5.35783052e-01  3.42773080e-01 -3.46390814e-01  1.27892479e-01]]
dense_13/bias:0
(8,)
[ 0.01207195 -0.39486748  0.425979   -0.6642816  -0.05968845  0.29901117
  0.4889875   0.42953593]
dense_15/kernel:0
(20, 32)
[[ 1.34721268e-02 -2.87029650e-02 -3.42860281e-01 -4.20367047e-02
  -1.79251626e-01  6.62201419e-02 -1.10278860e-01  3.25295359e-01
   2.61323124e-01 -1.57870591e-01  2.48558387e-01  3.81957293e-01
   4.98620689e-01 -6.78260446e-01 -1.66696057e-01 -2.90562421e-01
  -4.69596326e-01  1.09404944e-01  2.38455564e-01  1.09206223e+00
  -1.86751977e-01  2.21101016e-01  5.46735883e-01  4.30136919e-02
   5.03340423e-01  8.88473690e-01 -3.80059242e-01 -8.91312599e-01
   1.10291207e+00 -6.41375363e-01 -1.17689884e+00  8.48766863e-02]
 [ 4.18311991e-02  2.84634829e-01 -9.00830805e-01  7.72605240e-02
  -4.30297293e-02  5.30200005e-01 -1.28830910e-01  1.93448216e-01
   3.44879180e-01 -2.78321862e-01  6.91600263e-01 -6.58856094e-01
   6.34985983e-01  2.71887630e-01  2.74119824e-01 -2.89932191e-01
   6.23661816e-01  2.74272978e-01  1.10335246e-01 -6.81094974e-02
  -3.32843699e-02 -1.40094534e-01  5.16169816e-02 -2.51448631e-01
   7.53032416e-02 -5.42534649e-01  1.06902456e+00 -5.03914773e-01
  -3.05210978e-01 -4.13749814e-01 -6.51600003e-01 -1.78907946e-01]
 [-2.64063090e-01 -3.17981429e-02  8.03856730e-01  9.99574438e-02
  -1.68163031e-01 -3.86463165e-01  2.85760891e-02  1.57838002e-01
  -4.58018303e-01  7.97470868e-01  5.05179226e-01 -1.53105035e-02
  -5.16736925e-01 -2.83865571e-01 -5.48317172e-02  4.26377267e-01
   5.21214545e-01  4.49324518e-01  1.29146129e-01  7.61663079e-01
  -5.70948683e-02 -5.88019013e-01  4.47632998e-01  1.00101143e-01
   1.01564378e-01  8.98865998e-01  1.14654988e-01 -5.55020034e-01
  -7.44523525e-01  2.96143591e-01 -4.88989562e-01 -2.56624579e-01]
 [-1.92925304e-01  2.53088363e-02 -6.52754068e-01 -2.30151802e-01
  -3.89408767e-02 -5.11099577e-01 -4.81401056e-01 -2.96819121e-01
  -2.99313180e-02  2.13937372e-01 -7.28892908e-02  7.97395483e-02
   6.29967093e-01 -6.93979681e-01 -4.53197435e-02  2.77925909e-01
  -3.61158729e-01  5.84786713e-01  7.87537843e-02  9.40702975e-01
  -2.18964413e-01 -1.66758820e-01  1.37161434e-01 -8.61177072e-02
   9.60726142e-02  6.46808445e-01  5.81576645e-01  1.03524613e+00
   9.93373454e-01  4.19491589e-01 -5.72017610e-01 -3.47675532e-01]
 [ 6.70480356e-02  1.33733824e-01 -4.56925452e-01  2.34198987e-01
   6.91961199e-02  3.12989414e-01  1.13786854e-01  2.28729755e-01
   6.09097667e-02  2.20664158e-01 -5.05820930e-01  1.94216773e-01
  -4.72895235e-01 -1.98819995e-01 -6.90053761e-01 -1.04816922e-03
   1.50413170e-01  3.18501294e-01  2.97406524e-01 -6.20990515e-01
  -9.59054306e-02 -5.43278396e-01 -1.09247409e-01  1.06667504e-01
   4.81161475e-02 -3.07103932e-01  2.49416396e-01  3.14611405e-01
  -3.34959626e-01  1.96858466e-01 -3.45459014e-01 -3.25433671e-01]
 [ 3.18045020e-01  1.00581266e-01 -3.97140175e-01  7.17045292e-02
   3.06605726e-01  8.62908512e-02  2.73993999e-01  2.62528062e-01
   2.01153219e-01 -1.53933659e-01 -8.17433000e-01 -2.60027885e-01
  -2.05449119e-01 -3.35780710e-01 -1.30743206e+00 -7.15412736e-01
  -7.24555671e-01 -5.78047097e-01  3.33630979e-01 -7.97163427e-01
   2.32489139e-01 -4.38602507e-01 -2.96991825e-01  2.25750133e-01
  -7.46376514e-02 -3.23754877e-01 -4.24016267e-01 -4.55931395e-01
   1.09638302e-02 -3.27877909e-01 -1.00435996e+00  4.53175187e-01]
 [ 1.56730935e-01 -2.30148762e-01 -4.30216879e-01 -9.67963189e-02
  -2.45084852e-01  1.17371425e-01 -2.63612419e-01 -3.32641989e-01
  -3.57415266e-02  6.14807643e-02  5.73721945e-01  9.31344554e-02
   9.45153907e-02 -2.54318506e-01  7.91703701e-01  9.16340575e-02
   3.65662962e-01 -2.66473684e-02 -3.86822149e-02  2.81755984e-01
   8.89916252e-03 -1.95551157e-01  6.63043022e-01 -2.17101470e-01
  -6.66719750e-02  8.92816558e-02  6.94035053e-01  7.42966235e-02
   9.88188200e-03  1.17662363e-01  1.53764173e-01 -9.05417651e-03]
 [ 1.98318183e-01 -6.32347539e-02 -4.38171178e-01  1.07754089e-01
   3.94725911e-02 -4.50441465e-02  4.28182006e-01  1.61739841e-01
  -1.51318341e-01  2.03528851e-02 -2.40973592e-01 -4.34112623e-02
   3.90332550e-01 -2.76930600e-01 -5.39620280e-01 -6.07220113e-01
  -4.07611609e-01 -2.54411489e-01  1.77184984e-01 -1.49870977e-01
   2.91684598e-01 -7.19327509e-01 -5.14627516e-01  4.55786556e-01
  -1.18497387e-01  1.15721166e-01 -1.45464376e-01 -1.20603181e-01
  -1.62160292e-01 -8.03615600e-02  3.54367346e-01  2.42143631e-01]
 [ 3.69222201e-02  7.03801215e-02 -2.36338064e-01  1.34669200e-01
  -1.78512737e-01 -2.54752010e-01  9.42940488e-02  3.37302655e-01
   1.32051408e-01  8.86892080e-02  6.24029106e-03  1.91247061e-01
  -4.70192641e-01  1.50787279e-01 -9.30847049e-01  2.32760400e-01
  -4.81976628e-01 -3.49344492e-01  5.49509466e-01 -1.71714053e-01
   2.39478067e-01  3.50040644e-01 -3.95229489e-01  9.08912718e-03
   3.48356403e-02 -4.03810516e-02  6.90706354e-03 -1.16955377e-01
  -3.38871293e-02 -3.93814802e-01  3.11516881e-01  2.97347099e-01]
 [-2.64651775e-02 -2.61003748e-02  2.89957553e-01  4.07181710e-01
  -3.77469748e-01  9.41163749e-02 -5.43044433e-02 -1.78885028e-01
   5.08837365e-02  2.96596825e-01  3.16078365e-01 -1.96645066e-01
   5.44301629e-01 -1.66483730e-01  2.44373232e-01  1.29745796e-01
  -3.50430161e-01 -2.70033535e-02  4.18184042e-01 -8.65775272e-02
  -2.84849465e-01 -8.09419062e-03  1.79997832e-01 -6.57145977e-02
   3.02072376e-01 -3.84525776e-01 -4.54426557e-02  7.35147297e-02
   2.79395521e-01  3.54653955e-01  3.06791306e-01 -5.39303757e-02]
 [-7.12472647e-02 -1.54341578e-01  2.25002989e-02 -7.84908086e-02
   8.34492035e-03 -2.79053062e-01  1.78411335e-01  2.72795707e-01
   3.15986395e-01  2.12855980e-01 -1.13004055e-02  2.15643868e-01
   2.56774515e-01  4.50337768e-01 -2.83214629e-01  7.96804130e-01
  -3.35742623e-01  6.16384506e-01 -1.09201677e-01 -4.63005062e-03
   1.09744020e-01 -8.92234221e-02  4.71607596e-01 -2.90870871e-02
   2.48330891e-01  2.46155530e-01  2.00113595e-01  7.93313831e-02
   3.87581825e-01 -1.78026661e-01  6.42073825e-02 -4.71780777e-01]
 [ 6.18947506e-01  1.38035432e-01  2.68774867e-01  2.36888900e-01
  -1.98285758e-01  8.48234445e-02 -7.30599388e-02 -2.33001426e-01
   1.42589211e-01  3.65448415e-01 -2.99254209e-02  4.60113049e-01
  -7.75127709e-02 -2.47683242e-01 -3.68710279e-01  7.23163545e-01
  -1.87620237e-01 -3.14736128e-01 -9.57348570e-02  8.65055546e-02
   6.00388125e-02 -5.20753324e-01 -3.41318190e-01 -2.34458283e-01
  -1.95420444e-01  2.53629059e-01 -3.67544055e-01  1.62440747e-01
   2.00557098e-01  2.96655297e-01  4.10797715e-01  1.10941321e-01]
 [-2.97603488e-01  1.93656906e-01  6.19608462e-01  1.00683041e-01
   3.98000360e-01 -3.88344973e-01  6.99420124e-02 -4.68263358e-01
  -4.16090190e-01  2.51253217e-01  1.34383726e+00 -3.68735611e-01
   1.43075883e-01  5.20847261e-01  4.96412575e-01 -9.38823938e-01
   2.27566332e-01 -8.07327628e-02 -3.47461790e-01  1.40918881e-01
   1.06589630e-01  2.58595228e-01  2.44513214e-01 -1.20182514e-01
   1.74846604e-01  4.74965006e-01  3.07767451e-01 -8.87272209e-02
  -6.76446438e-01 -5.70345581e-01  1.11161005e+00  9.75113809e-02]
 [-3.83815348e-01 -8.67530778e-02 -5.17470360e-01  8.06204826e-02
  -6.03458956e-02  7.23386705e-02 -6.33099914e-01  6.30177632e-02
   1.61582440e-01  1.08926125e-01  2.18715459e-01  1.39052242e-01
  -2.42334932e-01 -3.14978480e-01  1.97979808e-02  4.81889993e-01
   5.51510006e-02 -8.42782669e-03  2.43161917e-01 -4.98398632e-01
   3.40918154e-01  1.04682751e-01  3.91862631e-01 -4.81857918e-02
  -1.63493343e-02  9.36004668e-02  2.58908361e-01 -6.83348700e-02
  -1.57178581e-01  4.34932590e-01 -3.62672494e-03  5.04254587e-02]
 [ 6.08876646e-01 -1.97841242e-01 -8.13178182e-01 -8.75230074e-01
   3.14634532e-01 -1.47163406e-01 -5.80525279e-01 -1.38410121e-01
   2.22947150e-01 -1.52604699e-01 -1.89628378e-01  5.78766167e-01
   3.99269402e-01  3.07284206e-01  6.05404489e-02  1.76149875e-01
   1.72154948e-01  3.59814376e-01 -2.09985524e-01 -1.02415848e+00
  -3.93862039e-01 -5.65932631e-01  1.34332645e+00  5.86416304e-01
   3.28583986e-01 -4.83500868e-01  4.40576971e-02  7.36564755e-01
   3.80535781e-01 -9.85768065e-02 -4.09796499e-02  2.00108156e-01]
 [ 4.48624492e-01  6.23012185e-01  7.03467965e-01 -7.42393062e-02
   4.89221588e-02  4.52408999e-01  3.25309366e-01 -9.28824209e-03
  -9.42632481e-02 -5.17854035e-01  1.03975326e-01  8.40646088e-01
  -4.09384012e-01 -3.12292218e-01  2.68500149e-01 -6.91681385e-01
   9.33717787e-01 -3.37871581e-01  4.74254191e-01  6.55729055e-01
  -2.43787110e-01  3.09702039e-01  7.10163534e-01 -2.84613818e-01
   3.84635746e-01  1.82038829e-01 -3.25789273e-01  5.52172065e-01
  -5.27463257e-01 -3.71398628e-01  1.16156936e+00  7.09231615e-01]
 [-5.12750149e-01 -3.16234142e-01 -9.41445768e-01 -4.63085651e-01
   4.45698261e-01  1.06015101e-01  1.24802083e-01 -6.93101287e-01
  -2.04002082e-01 -4.78896737e-01 -4.49134827e-01  2.82421291e-01
  -8.42884302e-01  3.95418733e-01 -5.52957416e-01 -3.89431983e-01
   5.16694725e-01 -1.62140921e-01  3.28570455e-01 -4.67742607e-02
   1.10229708e-01 -1.33603126e-01 -4.63457145e-02 -5.81283271e-01
   4.68176425e-01  1.83994204e-01  7.45048046e-01  2.10801616e-01
  -4.75053877e-01  6.31567538e-01 -3.27130944e-01  2.53263801e-01]
 [-1.19682699e-01  6.78227067e-01 -3.18994880e-01 -1.14754215e-01
  -1.70726985e-01  3.05408567e-01  8.57361734e-01 -4.44482267e-01
  -4.36103553e-01  2.78183341e-01  4.48483258e-01  1.53506935e-01
  -2.93240938e-02 -1.67452365e-01  1.10486746e-01  1.02091804e-01
  -6.04050994e-01  4.95492876e-01  1.18015118e-01 -9.01685655e-01
   4.37797874e-01  4.14705813e-01  1.84309095e-01 -2.63536721e-01
  -3.19661021e-01 -4.37619925e-01 -9.06609893e-01  6.38167739e-01
   2.17770502e-01  3.98125321e-01  2.47820348e-01 -4.19665426e-01]
 [ 1.26245275e-01 -5.16464710e-01  5.76829970e-01 -5.32118976e-01
  -8.96870252e-03 -2.03491345e-01  2.94159174e-01 -9.77370143e-02
  -3.01388651e-01 -3.41990180e-02 -1.02614537e-01  3.15678120e-02
   7.98846364e-01 -1.88747253e-02  9.03180689e-02 -2.95442212e-02
  -3.29167008e-01 -2.74463087e-01 -6.07893206e-02  7.75368392e-01
  -9.08753693e-01 -9.38313529e-02  3.50807369e-01 -5.99503577e-01
  -2.46683374e-01  4.55930293e-01  1.59276143e-01  3.37897450e-01
   3.31619233e-01  2.72695944e-02 -7.76754767e-02  1.31678641e-01]
 [-1.12436965e-01 -3.57344091e-01 -6.72111988e-01  2.44367361e-01
   6.59863532e-01 -1.63417339e-01 -3.63691717e-01 -2.80208677e-01
   3.43959123e-01 -3.24170619e-01 -2.63074666e-01  4.36461002e-01
  -5.03364265e-01 -6.97507486e-02 -6.77624047e-02  1.59338191e-01
  -1.03863132e+00 -2.35286623e-01 -5.10204285e-02  2.42086381e-01
   7.11393431e-02  9.46531519e-02  4.71954465e-01  3.49608988e-01
   5.80501437e-01  7.68024325e-01  6.92338720e-02 -3.14543635e-01
  -1.63410738e-01  3.26422781e-01  2.07054883e-01  2.60896742e-01]]
dense_15/bias:0
(32,)
[-0.21927391 -0.27787074 -0.38400164 -0.13140088 -0.25740725  0.20283628
 -0.18578973  0.24688129  0.2542872  -0.12013191 -0.22201207  0.04414053
  0.06428285 -0.28192684 -0.33335954  0.5439271  -0.28782728  0.00082805
 -0.1604273  -0.19405472  0.16752025 -0.33313847  0.11256871  0.05453505
  0.1819275  -0.555745    0.00781333 -0.01748885  0.05780346  0.28993884
 -0.29608968  0.19225311]
dense_17/kernel:0
(32, 4)
[[ 0.18883468  0.17098157  2.2873755   0.5344169 ]
 [ 0.13624461  0.37743595  0.5350283   0.16968933]
 [-0.53536564 -0.14379908  0.81852424 -0.63572216]
 [-0.13533738 -0.0588117   0.09236322  0.05181489]
 [-0.03467064 -0.04773011  0.14484775  0.75965136]
 [-0.26743132 -0.04048997  0.6148573  -0.1269897 ]
 [-0.996305    0.37422198  1.7104305   0.73832655]
 [-0.8901255   0.5013759   0.27406636 -0.512626  ]
 [-0.19989343 -0.16714518 -0.1168045   0.05506319]
 [-0.26554456  1.3300967   0.15618528  1.4746968 ]
 [ 0.6916272   0.17845269  0.962778   -0.9447734 ]
 [ 0.15352668  0.30689788  0.503247    0.15725881]
 [-1.1637563  -0.6021921   1.2693987   1.5734383 ]
 [-1.0482357  -0.2644013  -0.23435928 -0.5879353 ]
 [-0.44586337 -1.2966177  -0.1341805  -0.42292997]
 [ 0.42345724 -0.14007531  0.7957279   0.2098289 ]
 [ 0.97124505 -0.37542963  1.2345098   0.50861716]
 [ 1.0788187   0.73273724 -0.1707667   0.36419752]
 [-0.552498    0.5789141  -0.19415754  0.6650858 ]
 [-0.0885438   1.2432284   0.86442304  0.52957326]
 [-0.50442284  0.27386737  0.52499884  0.17267793]
 [-0.28810683  0.3634847  -0.45657274  0.65607375]
 [ 0.23633291  0.53142434 -0.18484204 -0.80228555]
 [-0.25777823  0.02275615  0.42686275  0.8125444 ]
 [ 0.48806065 -0.39278325  0.04433784 -0.12442914]
 [ 0.22653742  1.5886153   0.28153846  0.08347248]
 [-0.02672222  0.45361638 -0.28811833 -0.6246576 ]
 [-1.6351471  -0.4691747  -0.79215294 -0.42124835]
 [ 0.06607763  0.01772688  3.20178    -0.6076686 ]
 [-0.02600913  1.2177365   0.25379467  0.446468  ]
 [ 0.28753805 -0.37533525  0.11280133  0.03574282]
 [ 0.27895123  0.72298354 -0.20126247 -0.0186382 ]]
dense_17/bias:0
(4,)
[ 1.2150888 -0.676014  -1.0643988 -0.9967555]
dense_16/kernel:0
(32, 8)
[[ 0.10618106  0.26394    -0.1032055  -0.12929511  0.03088906 -0.36340186
  -0.21656135  0.35929048]
 [-0.3311068   0.37587762 -0.39522174 -0.04881605 -0.05179001  0.03655389
   0.24839547  0.05667868]
 [-0.1035446  -0.2288708   0.86342806 -0.80224884  0.7303477   0.24507445
   1.3498157   1.1951057 ]
 [ 0.1530011   0.18899587  0.11757141 -0.17057472 -0.58664954  0.22493808
   0.10863359 -0.08164132]
 [-0.28780815 -0.17974156  0.1718648   0.25878248  0.218638    0.2111339
  -0.2758624   0.07628632]
 [-0.4029278   0.11168943 -0.13223861 -0.25478286 -0.04946694  0.06775563
  -0.11912747  0.00751754]
 [-0.01947468 -0.1561065  -0.4691132  -0.2980462   0.21114662 -0.13184744
   0.1140082   0.18007362]
 [ 0.39727077 -0.07370535  0.18062958 -0.07914524  0.25591928 -0.42629403
   0.26871932 -0.05884025]
 [ 0.4324096   0.03835249  0.37355343  0.14502066  0.00889481  0.06479347
  -0.12117033  0.06406255]
 [ 0.34298247 -0.24302194  0.32463804  0.06553112  0.3343365   0.26178768
  -0.07456348 -0.19804801]
 [ 0.35892746 -0.6389754  -0.3442613   0.21296927 -0.5952287  -0.32904074
  -0.23293264  0.26718178]
 [ 0.13479437  0.0591396  -0.1604949   0.2120383   0.18820655 -0.13286853
   0.05097398 -0.30065328]
 [-0.28100103  0.2649224  -0.4607477   0.55978763 -0.17035623 -0.5799163
  -0.38937277 -0.47754672]
 [-0.3040245  -0.09937961 -0.04899112  0.3570872   0.19179982  0.33968118
  -0.19954455  0.40948474]
 [ 0.00686322  1.540628    0.854468    0.13198966 -0.820697   -0.953224
  -0.71673054 -0.50985044]
 [ 0.453405   -0.15330514  0.13649389  0.13955404  0.03737128 -0.46882802
   0.17175719 -0.4821738 ]
 [ 0.58339345  0.37452614 -0.15780963 -0.65041435 -0.73770404 -0.5601056
  -0.17000583 -0.9234105 ]
 [ 0.03827347  0.11167215 -0.03904522 -0.36088413  0.32066742 -0.20240487
   0.20750663 -0.45938337]
 [ 0.02823169 -0.23704705 -0.24796243  0.17639823 -0.35812768  0.22754416
   0.43008247  0.17207395]
 [ 1.544066   -0.35889596  0.03095303 -1.1660087   0.36981952  2.1750872
   2.0019486  -0.90004706]
