zk/kernel:0
(10, 16)
[[-0.44059843 -0.6037097  -1.0055585   0.35793215 -0.30098742 -0.4324739
  -0.3100255  -0.05112533  0.00829161  0.57298064  0.19194096  0.0050677
   0.06652651 -0.12956026  0.6120694   0.26760808]
 [ 0.22377218 -0.3079403   0.23424228 -0.45529968 -0.36059603 -0.43898758
  -0.5078036   0.5808923   0.03731912  0.11494262 -0.33026344 -0.01161811
  -0.5047606  -0.2907931   0.21022278 -0.28188276]
 [ 0.33828115 -0.09466508 -0.38760266 -0.40238845  0.37081343 -0.33599782
   0.1453864   0.13576108  0.03925329  0.0033471   0.36766756 -0.38547006
   0.4089843   0.41621417  0.13471675 -0.43838847]
 [ 0.4377724  -0.21182033 -0.289842    0.3204965   0.28194934  0.38391286
  -0.36875013 -0.16958576  0.43518937  0.1032446  -0.03320426  0.14047545
   0.41415393 -0.46837643 -0.28042328  0.11605597]
 [-0.29855     0.46632445 -0.05230463  0.16667652 -0.00407448  0.08419842
   0.13931412 -0.11148784  0.00752789  0.01506537 -0.12363771 -0.3954007
  -0.27347094  0.09857863 -0.06213725 -0.1250327 ]
 [ 0.18904716  0.03939235 -0.27505767 -0.43562618 -0.38987142  0.22991616
   0.14802295 -0.2824629   0.17262852  0.15388209 -0.2673815  -0.05147839
  -0.33746547  0.10583645 -0.2596938   0.3839532 ]
 [-0.15903375  0.42386633 -0.4204271   0.32252306 -0.11999705 -0.39572632
   0.3899082  -0.11500376 -0.36290026 -0.3218047  -0.08023202  0.4178639
   0.36028296 -0.20359576 -0.27086887 -0.3181683 ]
 [ 0.21913266  0.4542225  -0.12214008 -0.19588244  0.04653102 -0.22906116
   0.25492883 -0.07065377 -0.37066936 -0.13432586 -0.06482488 -0.11751512
  -0.35099852  0.40133697 -0.1519987  -0.10944346]
 [-0.17050546 -0.24669184  0.02483511 -0.3995885  -0.32404542  0.23296136
   0.37839115  0.41661364  0.4288745   0.08485925  0.36674076 -0.04776901
   0.09117413 -0.395767   -0.09427097  0.20347148]
 [-0.37197238 -0.3784853   0.39579988 -0.26176786  0.09837639  0.10156202
  -0.12545246  0.01609343 -0.0071663   0.09303653  0.33756453 -0.43404618
  -0.07852525  0.01505864 -0.00256002  0.4041502 ]]
zk/bias:0
(16,)
[-0.04109216 -0.16457053 -0.30695683  0.35672423  0.18732625 -1.1924305
 -0.22771731 -0.21145661 -0.9681332  -0.00323028 -0.20298827 -0.52663034
 -0.25106835 -0.27379215 -0.30414528 -1.3160316 ]
xk2/kernel:0
(16, 2)
[[ 0.4066674  -0.3310348 ]
 [-1.4408259  -0.07089406]
 [-3.2619758   0.6510298 ]
 [-0.17797737  0.29024863]
 [-0.0387877   0.25778654]
 [ 0.03329448 -0.35935998]
 [ 0.90901446  0.02183844]
 [-0.7722909  -0.05348109]
 [-0.109805   -0.01977664]
 [-0.46945253  0.2107946 ]
 [-0.6093754  -0.32673556]
 [-0.4551689  -0.1189748 ]
 [-0.9139259  -0.3526179 ]
 [-1.2610914   0.04856248]
 [ 0.47891116  0.77801114]
 [ 0.18263462 -0.09045436]]
xk2/bias:0
(2,)
[-0.03320766  0.09914146]
vk2/kernel:0
(16, 4)
[[ 0.06349005  0.37185195  0.21721669 -0.22484769]
 [ 0.16132835 -0.6015883   0.04734034  0.04446269]
 [-0.01366693  0.52593726 -0.12387169 -0.56150097]
 [-0.13563725  0.16511136 -0.16423656 -0.48951375]
 [ 0.60107154 -0.5857669   0.3812943   0.857505  ]
 [-0.5705164  -0.4436799   0.03715094  0.39235032]
 [ 0.31352097 -0.21922903 -0.27440488  0.92658055]
 [ 0.38712442 -0.0258125  -0.01381996 -0.04758279]
 [-0.27182433 -0.4162154  -0.10899543 -0.13199505]
 [-0.10841554 -0.1303616  -0.0554425  -0.04640343]
 [-0.14548773  0.14089812  0.15908039 -0.12607703]
 [ 0.05397883  0.19125907 -0.35211998  0.05948253]
 [ 0.4358273   0.3149124  -0.41881952 -0.51257306]
 [-0.33788148  0.31653258  0.34777057  0.15719762]
 [-0.12484784 -0.3000853  -0.05460091  0.7724174 ]
 [ 0.1530666   0.7524938   0.12661101 -0.8124446 ]]
vk2/bias:0
(4,)
[-0.2948427  -0.05231086 -0.04311504  0.05864149]
zk-2/kernel:0
(10, 16)
[[ 5.3957736e-01  6.5031397e-01  1.0504544e-01 -9.2523611e-01
  -1.0755930e+00 -4.9207625e-01  1.3480319e-01 -9.6497849e-02
  -4.6246791e-01  5.9187579e-01 -5.1753718e-01 -1.9652331e-01
   5.9709210e-02 -4.3828022e-02 -2.7955163e-01  1.7776118e-01]
 [ 7.0642680e-01 -8.8742650e-01  4.3502295e-01 -5.1580179e-01
   3.4349790e-01  1.1068124e+00  6.4146578e-01 -2.5848309e-02
  -3.3762342e-01 -7.3499066e-01  1.0651471e-01 -2.7817687e-01
  -6.8133779e-02  1.5871797e-02  4.8033354e-01 -1.0689051e-01]
 [-5.5285847e-01 -4.4910577e-01 -8.1299664e-03  4.7687805e-01
  -1.3009280e-01  2.1978548e-01 -3.6161858e-01  5.6816036e-01
   1.9686694e-01  1.2700376e-01  5.2414620e-01  1.9409962e-01
   4.9714988e-01 -2.6552564e-01  1.7160614e-01 -2.0628549e-01]
 [-1.3907107e-03  1.0545660e-01 -9.1917597e-02 -1.7756459e-01
   1.5011206e-01 -1.7287858e-01 -2.6414669e-01 -2.3620692e-01
  -6.6854239e-02  2.8461084e-01  1.4339845e-01  1.2568854e-01
  -8.6519569e-02  3.3926159e-01  5.1543450e-01  2.0741339e-01]
 [-1.8707563e-01  4.8858754e-02  2.6630813e-01  1.2557694e-01
   1.4990941e-01 -4.4573322e-03  1.0141961e-01  5.6140855e-02
   5.7164285e-02  8.3787953e-03 -1.6813253e-01 -1.0474319e-01
   1.7235382e-01  5.2149165e-03  1.3860278e-01  4.9077533e-03]
 [-6.4020932e-01 -5.2195692e-01  1.4162403e-01 -1.7667526e-02
  -5.8911926e-01  3.3155146e-01 -4.2782423e-01  2.4044265e-01
  -3.1488079e-01 -4.5868251e-01 -6.0386294e-01 -5.5061537e-01
  -4.0887862e-01  2.3281907e-01 -8.8839620e-01 -4.5248702e-02]
 [ 1.8398982e-01 -3.9125633e-01 -2.6973194e-01  4.3346280e-01
  -4.0091261e-01 -3.9268252e-01  3.7313536e-01 -5.5170304e-01
  -2.7904722e-01  3.1625378e-01  4.8183721e-01  5.5653851e-02
   2.2924855e-01  2.4083139e-01  1.5127832e-01  4.3075272e-01]
 [-3.9918286e-01  4.3775117e-01 -2.5490263e-02 -2.8896514e-02
  -1.3381087e+00  6.9972038e-01  5.2958704e-03  1.7429805e-01
   9.8297375e-01  8.4209734e-01 -1.8701896e-01 -9.0955538e-01
  -7.3686495e-02  8.3940156e-02  4.4480538e-01  4.8823512e-01]
 [-1.7918256e-01  6.2357098e-01  9.4157659e-02  8.7365246e-01
   8.0172342e-01  1.6605461e-01  1.2717646e-01  7.8274786e-01
   1.8306467e-01 -3.4177028e-02 -3.4776509e-02  1.1977252e+00
  -2.3038276e-01 -4.0409735e-01  3.5054810e-02  1.4808384e+00]
 [-3.6750987e-02  1.4664787e-01  5.2934617e-01 -2.7081755e-01
  -6.7239195e-02 -4.6748385e-01 -7.7372408e-01  3.2869947e-01
  -6.5409219e-01 -6.8529791e-01  1.2944070e-01  5.8323026e-01
   4.7080323e-01  4.4923741e-01 -5.0824642e-01  6.3414729e-01]]
zk-2/bias:0
(16,)
[ 0.03696343  0.01251902 -0.50772184 -0.30838275  0.18907441 -0.17010272
 -0.04127887  0.29853672  0.00836333 -0.06900218 -0.20639531 -0.02331377
 -0.23232864  0.2346695  -0.22089186 -0.12368765]
xk2-2/kernel:0
(16, 2)
[[ 1.3981324  -0.24384938]
 [-0.38493854  3.9016724 ]
 [ 0.13126484 -0.2884338 ]
 [ 1.4771456   0.4407435 ]
 [ 0.80078036 -0.53254217]
 [ 0.46888387  0.09122023]
 [-2.2344534   1.2340213 ]
 [ 0.06975336  0.02850412]
 [ 0.23001911  0.07414283]
 [ 1.0444415   0.5060114 ]
 [ 0.7739276   2.3522763 ]
 [ 0.879995    0.00697148]
 [-0.13673508  0.72371405]
 [ 0.09700703 -0.10689186]
 [-0.25972408  0.27194703]
 [ 1.2816615   1.3896122 ]]
xk2-2/bias:0
(2,)
[ 0.05502073 -0.17341217]
vk2-2/kernel:0
(16, 4)
[[ 3.0409815e-02  2.0842791e-01 -4.7615874e-01  3.7850985e-01]
 [-1.7053373e-02  1.8569350e-01  6.5359402e-01 -8.9540219e-01]
 [-2.3493147e-01 -3.6015016e-01  7.8463852e-03  4.5824447e-01]
 [ 5.5720389e-01 -5.6474912e-01 -5.3790998e-01 -1.7044554e-02]
 [-2.4756942e-02  6.6126108e-01  2.0801941e-01 -8.5632145e-01]
 [-7.4176025e-01  5.0961214e-01 -7.1802092e-01  2.9681111e-02]
 [ 5.4613328e-01  1.4787800e+00  7.2958612e-01 -4.9042413e-01]
 [ 5.6197792e-01 -3.7851155e-02  7.1734929e-01  5.3182840e-01]
 [-2.3039324e-02  7.3357219e-01  3.0641952e-01  7.8442258e-01]
 [-2.8803042e-01 -1.3183318e-01  7.7956849e-01  4.5975521e-02]
 [ 9.5547386e-04 -2.3588771e-02  2.1891463e-01 -1.3678227e-01]
 [-9.9205947e-01  5.0461340e-01 -9.1824865e-01 -2.5197786e-01]
 [ 5.4672652e-01 -3.3330232e-01  7.9973541e-02  8.0399029e-03]
 [ 2.8132040e-02 -6.7874259e-01 -3.7224615e-01  1.6624065e-01]
 [ 1.0380384e-01  4.7979197e-01 -9.8059809e-01  1.2775324e-01]
 [ 9.1318208e-01  3.7828535e-01  1.4386220e-01 -5.7044441e-01]]
vk2-2/bias:0
(4,)
[ 0.12926167 -0.44808128 -0.14610277 -0.18807045]
zk-3/kernel:0
(10, 16)
[[-2.2152527e-01 -5.7209045e-01 -5.6332886e-01 -1.1859896e-01
   8.8446194e-01  1.1195008e+00 -1.0113751e+00  8.4529394e-01
   1.7917314e-01  9.5917219e-01 -4.6037221e-01 -1.0377638e-01
  -5.4947909e-02  5.5331868e-01  1.3625838e+00  3.4756351e-02]
 [ 7.6785946e-01  8.7280947e-01 -1.6982381e-01 -5.4231334e-01
  -9.0410747e-02  2.8932953e-01 -1.0806508e+00 -2.9991838e-01
   2.9462878e-02 -5.4659438e-01 -1.4276901e+00  4.6037653e-01
   5.6631401e-02  4.0330616e-01  6.4343530e-01 -4.4959646e-01]
 [ 4.1062199e-02  8.6606324e-02 -1.2535207e-01 -4.7727197e-01
  -1.8128026e-01  3.8414010e-01  2.2721229e-01  4.2103165e-01
  -5.8727819e-02 -2.4548031e-01  1.0297207e-01 -5.3756404e-01
  -1.8139592e-01  6.8083704e-02 -9.7991005e-02  7.2389418e-01]
 [ 7.5691336e-01  3.8800400e-01 -1.9245501e-01 -3.7704256e-01
   5.2031424e-02 -2.0224498e-01 -3.4758294e-01  4.0288281e-01
   1.0407238e-01  7.4332279e-01  1.2206359e-01  1.3945942e-01
   3.3861229e-01 -4.6239579e-01 -1.4199898e-01 -9.7962761e-01]
 [-2.0781831e-01 -4.7684389e-01 -7.8104097e-01  3.5182151e-01
   1.3665289e-01  2.0724751e-01 -4.3942374e-01  2.7350995e-01
   5.3242612e-01  9.8573434e-01 -5.7526235e-02  7.3662847e-01
  -7.5342286e-01  2.2223955e-02 -6.9142878e-01  1.7953983e-01]
 [-2.7771486e-02 -3.1522474e-01 -1.4758237e-01 -2.5915807e-01
   5.2688856e-02 -1.0692081e+00 -5.1391765e-02  2.5111195e-01
  -2.6281995e-01 -6.6903764e-01 -6.6863291e-02 -3.7921730e-01
  -3.8684416e-01 -1.2892104e+00  3.5945126e-01 -2.7176440e-01]
 [-6.5992904e-01 -2.8887635e-01 -1.2233179e+00 -1.9863344e+00
  -2.3745675e-01  1.7414400e-01 -2.3018129e-01 -1.0323977e-01
   1.4971291e+00  1.4076382e-01  3.9793798e-03 -1.3752495e-01
   5.8178764e-02 -1.8259177e+00 -8.4757853e-01  8.4129012e-01]
 [ 1.1727681e+00  3.5637274e-01  1.8170357e+00 -3.0948588e-01
  -5.8576435e-01 -2.9365519e-01 -4.7620240e-01  4.1233040e-03
  -6.8154371e-01 -6.4362335e-01  4.6264149e-02  7.2129285e-01
   8.4183282e-01 -4.5234370e-01  7.4989843e-01 -3.9134014e-01]
 [-2.4647103e-03  5.3720063e-01  8.0674177e-01 -9.3837939e-02
  -9.3629390e-02  5.4347347e-02 -1.8291466e-01  1.1201818e+00
  -2.4530103e+00  9.7303563e-01 -3.6390477e-01 -1.4071459e-01
  -7.4145347e-01 -1.3521120e-01 -6.7745620e-01  5.8945203e-01]
 [ 5.1230228e-01  3.2958993e-01 -1.6425294e-01 -5.8227432e-01
  -1.1472570e+00 -8.3238459e-01 -3.5942051e-01 -3.4607479e-01
   9.2166923e-02 -1.9758267e-03 -3.4745562e-01 -8.8618112e-01
   1.0501383e-01 -4.7050945e-02 -3.8730595e-01 -4.1422179e-01]]
zk-3/bias:0
(16,)
[-1.0731014  -0.80339265  0.23622838 -0.70569795  1.1057334   0.12359918
 -0.46690148  0.1902737  -1.3630407  -0.84855825  0.22492297 -0.01938045
 -0.32906076 -0.18728982 -0.35275748  0.11032364]
xk2-3/kernel:0
(16, 2)
[[ 0.10927588  1.193902  ]
 [-0.60208863  0.15899685]
 [-1.1924638   0.36737344]
 [ 0.5909205  -0.92213434]
 [-0.9665649   0.7394539 ]
 [ 2.5657778   0.08204903]
 [-1.3636956  -0.87354004]
 [ 0.93283117  0.3788859 ]
 [-0.7145797  -0.10599269]
 [ 0.21542102 -1.2319177 ]
 [-0.43840042 -3.0453346 ]
 [ 0.27976978  0.7846568 ]
 [-0.05069106 -1.0886276 ]
 [ 0.7459207   0.54709846]
 [ 1.1736956   1.5018351 ]
 [ 0.519595   -0.2913372 ]]
xk2-3/bias:0
(2,)
[-0.7648234 -0.1932689]
